Accelerometer X	Accelerometer Y	Accelerometer Z	Gyroscope X	Gyroscope Y	Gyroscope Z	Roll	Pitch	Yaw	Time Stamp	    UTC Time	UTC Date
(m.s^-2)	(m.s^-2)	(m.s^-2)	(°.s^-1)	(°.s^-1)	(°.s^-1)	(°)	(°)	(°)	(s)	(HH:MM:SS.SS	(YYYY-MM-DD)
0.393	0.083	-9.865	-0.032950	-0.052302	-0.033062	-0.106332	2.473337	-83.778656	175.115	19:35:13.000	2024-03-15
0.365	0.080	-9.861	-0.043676	-0.090376	-0.035604	-0.106303	2.473348	-83.778854	175.129	19:35:13.014	2024-03-15
0.337	0.078	-9.857	-0.054401	-0.128449	-0.038146	-0.106273	2.473359	-83.779032	175.143	19:35:13.028	2024-03-15
0.458	0.054	-9.886	-0.025383	0.092308	-0.068722	-0.106263	2.473282	-83.779216	175.157	19:35:13.042	2024-03-15
0.360	0.008	-9.781	0.023339	0.020410	-0.032152	-0.106366	2.472672	-83.779257	175.171	19:35:13.056	2024-03-15
0.461	0.063	-9.709	-0.011441	0.087166	-0.057732	-0.106371	2.473084	-83.779244	175.185	19:35:13.070	2024-03-15
0.365	0.014	-9.735	-0.044515	0.076601	-0.007964	-0.106358	2.473629	-83.778943	175.199	19:35:13.084	2024-03-15
0.359	0.053	-9.687	-0.041775	-0.033689	-0.008232	-0.106399	2.473477	-83.778089	175.213	19:35:13.098	2024-03-15
0.412	0.052	-9.894	-0.043642	0.017232	0.028434	-0.106250	2.473604	-83.777427	175.227	19:35:13.112	2024-03-15
0.339	0.023	-9.793	-0.023037	-0.041296	0.016154	-0.106233	2.473614	-83.777154	175.241	19:35:13.126	2024-03-15
0.517	0.080	-9.901	0.011765	0.146383	-0.064261	-0.106433	2.473409	-83.777338	175.255	19:35:13.140	2024-03-15
0.314	0.022	-9.706	-0.012467	0.081576	-0.074967	-0.106672	2.474122	-83.778363	175.269	19:35:13.154	2024-03-15
0.335	0.008	-9.688	-0.052902	0.008758	-0.093934	-0.106648	2.474331	-83.778868	175.283	19:35:13.168	2024-03-15
0.325	0.007	-9.708	-0.037655	-0.002407	-0.074018	-0.106400	2.474145	-83.778971	175.297	19:35:13.182	2024-03-15
0.315	0.006	-9.728	-0.022407	-0.013571	-0.054101	-0.105989	2.473875	-83.778950	175.311	19:35:13.196	2024-03-15
0.305	0.005	-9.747	-0.007160	-0.024735	-0.034184	-0.105579	2.473603	-83.778943	175.325	19:35:13.210	2024-03-15
0.315	0.013	-9.813	-0.013656	-0.057893	0.005795	-0.105285	2.473149	-83.778964	175.339	19:35:13.224	2024-03-15
0.451	0.055	-9.847	-0.034945	0.019029	-0.031926	-0.105284	2.472241	-83.779100	175.353	19:35:13.238	2024-03-15
0.343	0.046	-9.807	-0.004618	0.041480	-0.047861	-0.105726	2.471277	-83.779818	175.367	19:35:13.252	2024-03-15
0.397	0.054	-9.700	0.018979	0.018519	-0.048863	-0.105685	2.471197	-83.780282	175.381	19:35:13.266	2024-03-15
0.401	0.075	-9.757	-0.013248	0.073995	-0.005606	-0.104905	2.472307	-83.780261	175.395	19:35:13.280	2024-03-15
0.346	-0.020	-9.741	-0.037729	0.017679	-0.012808	-0.105275	2.473076	-83.780494	175.409	19:35:13.294	2024-03-15
0.441	0.051	-9.849	-0.041419	0.044232	-0.010707	-0.105795	2.473370	-83.780460	175.423	19:35:13.308	2024-03-15
0.307	0.002	-9.727	-0.044942	-0.051104	0.019122	-0.106324	2.473287	-83.780316	175.437	19:35:13.322	2024-03-15
0.366	0.049	-9.810	-0.066974	-0.146865	0.033780	-0.106235	2.473083	-83.780692	175.451	19:35:13.336	2024-03-15
0.367	0.053	-9.756	-0.057130	-0.114465	0.033035	-0.106146	2.472879	-83.781088	175.465	19:35:13.350	2024-03-15
0.367	0.057	-9.701	-0.047286	-0.082065	0.032291	-0.106058	2.472674	-83.781470	175.479	19:35:13.364	2024-03-15
0.368	0.061	-9.647	-0.037442	-0.049665	0.031547	-0.105969	2.472470	-83.781853	175.493	19:35:13.378	2024-03-15
0.368	0.066	-9.592	-0.027598	-0.017265	0.030803	-0.105880	2.472266	-83.782229	175.507	19:35:13.392	2024-03-15
0.436	0.065	-9.725	-0.018412	-0.005573	0.034445	-0.105833	2.472166	-83.782249	175.521	19:35:13.406	2024-03-15
0.283	-0.002	-9.796	0.006212	-0.037822	0.014141	-0.105842	2.472207	-83.781791	175.535	19:35:13.420	2024-03-15
0.389	0.065	-9.864	-0.044076	-0.036805	-0.001398	-0.105426	2.471339	-83.781170	175.549	19:35:13.434	2024-03-15
0.379	0.059	-9.820	0.012676	0.070552	-0.016063	-0.105426	2.470859	-83.781293	175.563	19:35:13.448	2024-03-15
0.380	0.011	-9.771	-0.024533	0.043330	-0.063448	-0.105675	2.470840	-83.781928	175.577	19:35:13.462	2024-03-15
0.413	0.052	-9.727	-0.032348	0.083857	-0.028335	-0.105554	2.471836	-83.781996	175.591	19:35:13.476	2024-03-15
0.330	-0.052	-9.758	-0.063713	0.008470	0.032499	-0.106190	2.472162	-83.781908	175.605	19:35:13.490	2024-03-15
0.404	0.058	-9.801	-0.044292	0.009931	-0.029599	-0.106878	2.472256	-83.781853	175.619	19:35:13.504	2024-03-15
0.434	0.044	-9.911	-0.002210	0.013312	-0.004576	-0.106942	2.472446	-83.782126	175.633	19:35:13.518	2024-03-15
0.420	0.032	-9.913	-0.012923	0.010004	-0.022326	-0.107005	2.472637	-83.782393	175.647	19:35:13.532	2024-03-15
0.406	0.019	-9.914	-0.023637	0.006696	-0.040075	-0.107069	2.472827	-83.782652	175.661	19:35:13.546	2024-03-15
0.391	0.006	-9.916	-0.034350	0.003387	-0.057825	-0.107132	2.473017	-83.782925	175.675	19:35:13.560	2024-03-15
0.377	-0.007	-9.918	-0.045064	0.000079	-0.075575	-0.107196	2.473209	-83.783198	175.689	19:35:13.574	2024-03-15
0.347	-0.033	-9.849	-0.017224	0.001467	-0.057655	-0.107119	2.472423	-83.783458	175.703	19:35:13.588	2024-03-15
0.397	0.065	-9.634	-0.024234	0.014318	0.039405	-0.106923	2.471231	-83.783595	175.717	19:35:13.602	2024-03-15
0.363	0.044	-9.739	-0.015607	0.004008	0.041383	-0.106655	2.472000	-83.782809	175.731	19:35:13.616	2024-03-15
0.331	0.069	-9.855	-0.073649	-0.048137	0.010246	-0.106737	2.471947	-83.782795	175.745	19:35:13.630	2024-03-15
0.426	0.046	-9.852	-0.002531	0.050597	-0.026510	-0.107074	2.471358	-83.783055	175.759	19:35:13.644	2024-03-15
0.355	-0.008	-9.809	-0.020114	-0.019518	-0.023146	-0.107699	2.470250	-83.783280	175.773	19:35:13.658	2024-03-15
0.426	0.088	-9.665	-0.000576	0.091558	-0.049854	-0.106954	2.470809	-83.783704	175.787	19:35:13.672	2024-03-15
0.356	-0.006	-9.755	0.000987	0.002626	-0.046990	-0.106340	2.471207	-83.784025	175.801	19:35:13.686	2024-03-15
0.329	-0.053	-9.755	-0.019650	-0.011241	-0.013042	-0.106205	2.471021	-83.784168	175.815	19:35:13.700	2024-03-15
0.326	-0.036	-9.732	-0.023776	-0.008723	-0.024204	-0.106070	2.470835	-83.784305	175.829	19:35:13.714	2024-03-15
0.324	-0.020	-9.710	-0.027902	-0.006204	-0.035366	-0.105934	2.470650	-83.784448	175.843	19:35:13.728	2024-03-15
0.321	-0.004	-9.687	-0.032028	-0.003686	-0.046528	-0.105799	2.470464	-83.784592	175.857	19:35:13.742	2024-03-15
0.318	0.013	-9.665	-0.036153	-0.001167	-0.057690	-0.105664	2.470279	-83.784722	175.871	19:35:13.756	2024-03-15
0.476	0.122	-9.747	-0.009880	0.014583	-0.080756	-0.105460	2.470079	-83.785104	175.885	19:35:13.770	2024-03-15
0.363	-0.022	-9.885	-0.033137	0.016438	-0.032103	-0.105591	2.469831	-83.785220	175.899	19:35:13.784	2024-03-15
0.363	0.036	-9.607	-0.020018	-0.033496	0.001640	-0.106628	2.469477	-83.784401	175.913	19:35:13.798	2024-03-15
0.442	0.056	-9.770	0.001989	0.007673	-0.019913	-0.106668	2.469869	-83.784455	175.927	19:35:13.812	2024-03-15
0.315	0.033	-9.831	-0.085451	-0.074367	-0.027697	-0.106802	2.469873	-83.784558	175.941	19:35:13.826	2024-03-15
0.476	0.077	-9.902	0.002669	0.055813	0.019849	-0.107284	2.469192	-83.784599	175.955	19:35:13.840	2024-03-15
0.356	0.044	-9.801	-0.008626	0.060215	-0.064960	-0.107560	2.468790	-83.785459	175.969	19:35:13.854	2024-03-15
0.428	0.055	-9.665	-0.047170	0.116115	-0.060061	-0.107632	2.468761	-83.785630	175.983	19:35:13.868	2024-03-15
0.427	0.068	-9.672	-0.056216	0.082627	-0.048046	-0.107552	2.469012	-83.785261	175.997	19:35:13.882	2024-03-15
0.409	0.068	-9.700	-0.051368	0.028313	-0.039136	-0.107471	2.469262	-83.784892	176.011	19:35:13.896	2024-03-15
0.391	0.068	-9.728	-0.046521	-0.026000	-0.030227	-0.107391	2.469513	-83.784537	176.025	19:35:13.910	2024-03-15
0.373	0.068	-9.757	-0.041673	-0.080313	-0.021317	-0.107311	2.469763	-83.784175	176.039	19:35:13.924	2024-03-15
0.487	0.093	-9.841	-0.003265	0.045712	-0.018068	-0.107231	2.470014	-83.783813	176.053	19:35:13.938	2024-03-15
0.303	0.041	-9.744	-0.004353	0.092302	-0.025295	-0.107000	2.470825	-83.784025	176.067	19:35:13.952	2024-03-15
0.422	0.047	-9.740	-0.009944	0.040857	-0.077805	-0.106933	2.471486	-83.784646	176.081	19:35:13.966	2024-03-15
0.378	-0.010	-9.964	-0.017245	0.074553	-0.074788	-0.107116	2.471822	-83.785678	176.095	19:35:13.980	2024-03-15
0.360	0.014	-9.709	-0.043744	0.046523	-0.016334	-0.107343	2.471892	-83.786156	176.109	19:35:13.994	2024-03-15
0.450	0.091	-9.705	-0.023170	0.016468	0.000123	-0.107518	2.472469	-83.786047	176.123	19:35:14.008	2024-03-15
0.295	0.025	-9.796	-0.063314	-0.026790	0.034389	-0.107675	2.473232	-83.785657	176.137	19:35:14.022	2024-03-15
0.426	0.041	-9.896	0.004689	0.018915	-0.037474	-0.107965	2.472855	-83.786245	176.151	19:35:14.036	2024-03-15
0.334	0.042	-9.827	-0.037999	0.112484	-0.011003	-0.107831	2.472806	-83.786320	176.165	19:35:14.050	2024-03-15
0.365	0.043	-9.851	-0.033591	0.093370	-0.012892	-0.107527	2.472888	-83.786190	176.179	19:35:14.064	2024-03-15
0.395	0.045	-9.875	-0.029184	0.074256	-0.014781	-0.107224	2.472969	-83.786067	176.193	19:35:14.078	2024-03-15
0.426	0.046	-9.899	-0.024776	0.055141	-0.016671	-0.106920	2.473051	-83.785937	176.207	19:35:14.092	2024-03-15
0.457	0.048	-9.923	-0.020369	0.036027	-0.018560	-0.106616	2.473133	-83.785821	176.221	19:35:14.106	2024-03-15
0.290	0.010	-9.713	-0.014430	0.061066	0.022518	-0.106312	2.473214	-83.785691	176.235	19:35:14.120	2024-03-15
0.428	0.063	-9.819	-0.025767	-0.058967	-0.023288	-0.106279	2.472456	-83.785978	176.249	19:35:14.134	2024-03-15
0.361	0.040	-9.819	-0.000563	0.088476	-0.039306	-0.106280	2.472092	-83.786538	176.263	19:35:14.148	2024-03-15
0.347	0.016	-9.735	-0.028132	-0.035101	-0.061789	-0.106375	2.471990	-83.787269	176.277	19:35:14.162	2024-03-15
0.406	0.036	-9.851	-0.013590	0.020767	-0.068516	-0.106899	2.471683	-83.787884	176.291	19:35:14.176	2024-03-15
0.333	-0.010	-9.816	-0.030652	0.039123	-0.037405	-0.107024	2.470964	-83.787372	176.305	19:35:14.190	2024-03-15
0.422	0.064	-9.624	-0.032584	0.009484	-0.000359	-0.107007	2.470431	-83.786593	176.319	19:35:14.204	2024-03-15
0.321	0.030	-9.750	-0.026220	-0.052804	0.025611	-0.107039	2.470775	-83.786327	176.333	19:35:14.218	2024-03-15
0.369	0.063	-9.912	-0.050216	-0.070940	0.010125	-0.107035	2.470848	-83.786497	176.347	19:35:14.232	2024-03-15
0.462	0.029	-9.889	-0.032085	0.043837	-0.032128	-0.107025	2.470876	-83.786730	176.361	19:35:14.246	2024-03-15
0.416	-0.005	-9.847	-0.044139	0.027181	-0.030340	-0.107015	2.470905	-83.786955	176.375	19:35:14.260	2024-03-15
0.370	-0.039	-9.804	-0.056194	0.010524	-0.028552	-0.107005	2.470933	-83.787187	176.389	19:35:14.274	2024-03-15
0.324	-0.073	-9.762	-0.068248	-0.006132	-0.026764	-0.106994	2.470961	-83.787420	176.403	19:35:14.288	2024-03-15
0.384	0.041	-9.744	-0.028748	0.002888	-0.020753	-0.107102	2.470977	-83.787638	176.417	19:35:14.302	2024-03-15
0.353	0.023	-9.804	-0.022947	-0.019288	-0.013824	-0.107918	2.470922	-83.787734	176.431	19:35:14.316	2024-03-15
0.357	0.051	-9.822	-0.112459	-0.095712	0.027298	-0.108420	2.470398	-83.787467	176.445	19:35:14.330	2024-03-15
0.427	0.069	-9.838	0.005226	0.100196	-0.015822	-0.108569	2.469996	-83.787420	176.459	19:35:14.344	2024-03-15
0.325	0.031	-9.693	-0.017809	0.043326	-0.067499	-0.108147	2.470364	-83.788307	176.473	19:35:14.358	2024-03-15
0.452	0.075	-9.762	-0.002041	0.010801	-0.073251	-0.107867	2.470823	-83.789113	176.487	19:35:14.372	2024-03-15
0.355	-0.019	-9.876	-0.021281	0.040971	-0.039423	-0.107655	2.470678	-83.788833	176.501	19:35:14.386	2024-03-15
0.390	0.044	-9.622	-0.013633	0.000155	0.013136	-0.107504	2.469707	-83.787099	176.515	19:35:14.400	2024-03-15
0.475	0.064	-9.783	-0.014903	0.013263	0.057802	-0.106579	2.470293	-83.786525	176.529	19:35:14.414	2024-03-15
0.466	0.063	-9.749	-0.007831	0.023350	0.022531	-0.106322	2.470367	-83.786573	176.543	19:35:14.428	2024-03-15
0.458	0.062	-9.716	-0.000760	0.033437	-0.012740	-0.106567	2.470056	-83.787064	176.557	19:35:14.442	2024-03-15
0.450	0.060	-9.682	0.006312	0.043524	-0.048012	-0.106811	2.469746	-83.787542	176.571	19:35:14.456	2024-03-15
0.441	0.059	-9.648	0.013383	0.053612	-0.083283	-0.107056	2.469435	-83.788041	176.585	19:35:14.470	2024-03-15
0.352	0.041	-9.705	-0.021378	0.008045	-0.040753	-0.107326	2.469163	-83.788239	176.599	19:35:14.484	2024-03-15
0.366	0.036	-9.745	-0.068516	-0.083061	0.024993	-0.107660	2.468989	-83.787747	176.613	19:35:14.498	2024-03-15
0.438	0.041	-9.876	-0.021143	0.033165	-0.025466	-0.107912	2.469487	-83.787802	176.627	19:35:14.512	2024-03-15
0.331	0.026	-9.773	-0.054198	-0.060745	-0.004527	-0.108356	2.469415	-83.787891	176.641	19:35:14.526	2024-03-15
0.526	0.042	-9.917	-0.045984	0.084280	-0.045713	-0.109072	2.468431	-83.787904	176.655	19:35:14.540	2024-03-15
0.312	0.033	-9.759	-0.017070	0.062244	-0.062652	-0.109031	2.468092	-83.788943	176.669	19:35:14.554	2024-03-15
0.435	0.093	-9.719	-0.015792	0.019687	-0.044103	-0.108898	2.468505	-83.789605	176.683	19:35:14.568	2024-03-15
0.358	0.001	-9.913	0.016237	0.016104	-0.055108	-0.108759	2.469347	-83.789892	176.697	19:35:14.582	2024-03-15
0.389	0.013	-9.910	0.003164	0.020431	-0.051847	-0.108997	2.469386	-83.789462	176.711	19:35:14.596	2024-03-15
0.420	0.024	-9.907	-0.009908	0.024759	-0.048587	-0.109235	2.469424	-83.789045	176.725	19:35:14.610	2024-03-15
0.452	0.036	-9.904	-0.022981	0.029087	-0.045326	-0.109473	2.469463	-83.788622	176.739	19:35:14.624	2024-03-15
0.483	0.047	-9.901	-0.036053	0.033414	-0.042066	-0.109711	2.469501	-83.788212	176.753	19:35:14.638	2024-03-15
0.345	0.052	-9.838	0.006329	0.070425	-0.027981	-0.110272	2.468934	-83.788581	176.767	19:35:14.652	2024-03-15
0.401	0.059	-9.670	-0.019499	0.062941	-0.054083	-0.110262	2.469002	-83.789182	176.781	19:35:14.666	2024-03-15
0.401	0.077	-9.728	0.032368	0.052574	-0.087526	-0.109422	2.470049	-83.789947	176.795	19:35:14.680	2024-03-15
0.340	-0.032	-9.752	-0.052348	-0.046066	-0.032306	-0.108697	2.469587	-83.790350	176.809	19:35:14.694	2024-03-15
0.445	0.056	-9.869	-0.032956	0.034848	-0.010569	-0.108864	2.469526	-83.790295	176.823	19:35:14.708	2024-03-15
0.291	0.019	-9.719	-0.069780	-0.021870	0.020664	-0.109530	2.469604	-83.789988	176.837	19:35:14.722	2024-03-15
0.453	0.094	-9.870	-0.027931	0.006043	-0.029174	-0.109161	2.468722	-83.790131	176.851	19:35:14.736	2024-03-15
0.304	0.031	-9.753	0.038437	0.084749	-0.034726	-0.109078	2.468569	-83.790213	176.865	19:35:14.750	2024-03-15
0.296	0.029	-9.763	0.020735	0.063575	-0.024665	-0.109110	2.468706	-83.790281	176.879	19:35:14.764	2024-03-15
0.287	0.026	-9.772	0.003033	0.042401	-0.014603	-0.109141	2.468844	-83.790357	176.893	19:35:14.778	2024-03-15
0.278	0.023	-9.782	-0.014669	0.021226	-0.004542	-0.109172	2.468982	-83.790418	176.907	19:35:14.792	2024-03-15
0.270	0.021	-9.791	-0.032371	0.000052	0.005519	-0.109203	2.469119	-83.790479	176.921	19:35:14.806	2024-03-15
0.261	0.018	-9.801	-0.050073	-0.021122	0.015580	-0.109234	2.469257	-83.790555	176.935	19:35:14.820	2024-03-15
0.404	0.043	-9.889	-0.042918	-0.026134	-0.013796	-0.109308	2.468308	-83.790671	176.949	19:35:14.834	2024-03-15
0.373	0.060	-9.825	0.041768	0.028762	-0.032190	-0.109600	2.467608	-83.791046	176.963	19:35:14.848	2024-03-15
0.384	-0.003	-9.745	-0.002969	0.063750	-0.030484	-0.110003	2.467255	-83.791647	176.977	19:35:14.862	2024-03-15
0.422	0.068	-9.706	-0.039271	0.039768	-0.075304	-0.110088	2.467871	-83.792344	176.991	19:35:14.876	2024-03-15
0.328	-0.063	-9.759	-0.071999	-0.028841	-0.017383	-0.110166	2.468004	-83.790520	177.005	19:35:14.890	2024-03-15
0.387	0.060	-9.807	-0.073442	-0.086852	0.014194	-0.110218	2.467759	-83.788601	177.019	19:35:14.904	2024-03-15
0.312	0.009	-9.778	0.014485	-0.007515	0.003452	-0.110217	2.467054	-83.788970	177.033	19:35:14.918	2024-03-15
0.381	0.036	-9.821	-0.073020	-0.104975	-0.060886	-0.110026	2.467207	-83.789332	177.047	19:35:14.932	2024-03-15
0.383	0.040	-9.761	-0.057771	-0.085541	-0.042636	-0.109803	2.467503	-83.789687	177.061	19:35:14.946	2024-03-15
0.384	0.044	-9.701	-0.042522	-0.066106	-0.024386	-0.109580	2.467799	-83.790049	177.075	19:35:14.960	2024-03-15
0.386	0.048	-9.641	-0.027272	-0.046672	-0.006135	-0.109356	2.468095	-83.790397	177.089	19:35:14.974	2024-03-15
0.388	0.052	-9.581	-0.012023	-0.027237	0.012115	-0.109133	2.468390	-83.790759	177.103	19:35:14.988	2024-03-15
0.406	0.058	-9.585	-0.000596	-0.002331	0.018075	-0.108894	2.468743	-83.790971	177.117	19:35:15.002	2024-03-15
0.360	0.034	-9.766	-0.026471	0.000643	0.031761	-0.108558	2.469440	-83.790227	177.131	19:35:15.016	2024-03-15
0.332	0.025	-9.861	-0.058348	-0.054651	-0.023196	-0.108689	2.469275	-83.790254	177.145	19:35:15.030	2024-03-15
0.425	0.064	-9.864	-0.019002	0.035331	-0.040183	-0.109004	2.468645	-83.790650	177.159	19:35:15.044	2024-03-15
0.354	-0.009	-9.833	-0.024683	0.012510	-0.082622	-0.109312	2.467712	-83.791197	177.173	19:35:15.058	2024-03-15
0.429	0.099	-9.649	-0.007745	0.072365	-0.102165	-0.108928	2.467979	-83.792276	177.187	19:35:15.072	2024-03-15
0.361	-0.002	-9.717	-0.008241	-0.003871	-0.041731	-0.108881	2.468059	-83.792631	177.201	19:35:15.086	2024-03-15
0.366	0.056	-9.703	-0.070938	-0.065798	-0.028998	-0.109436	2.467622	-83.791880	177.215	19:35:15.100	2024-03-15
0.366	0.044	-9.742	-0.060891	-0.043416	-0.030734	-0.109336	2.467374	-83.792146	177.229	19:35:15.114	2024-03-15
0.366	0.032	-9.781	-0.050844	-0.021034	-0.032470	-0.109235	2.467125	-83.792412	177.243	19:35:15.128	2024-03-15
0.366	0.021	-9.820	-0.040797	0.001348	-0.034206	-0.109135	2.466877	-83.792679	177.257	19:35:15.142	2024-03-15
0.366	0.009	-9.859	-0.030749	0.023729	-0.035942	-0.109034	2.466629	-83.792945	177.271	19:35:15.156	2024-03-15
0.367	-0.003	-9.898	-0.020702	0.046111	-0.037678	-0.108934	2.466380	-83.793212	177.285	19:35:15.170	2024-03-15
0.356	-0.031	-9.882	-0.029980	0.042738	-0.024962	-0.108992	2.466477	-83.792904	177.299	19:35:15.184	2024-03-15
0.364	0.042	-9.568	-0.073705	0.013656	0.003851	-0.109445	2.467438	-83.791128	177.313	19:35:15.198	2024-03-15
0.444	0.065	-9.789	-0.038121	-0.030164	-0.041809	-0.109752	2.467645	-83.791108	177.327	19:35:15.212	2024-03-15
0.315	0.029	-9.859	-0.091021	-0.081562	-0.010954	-0.110080	2.467512	-83.791258	177.341	19:35:15.226	2024-03-15
0.478	0.075	-9.859	-0.001160	0.111919	0.009652	-0.110466	2.467091	-83.791244	177.355	19:35:15.240	2024-03-15
0.357	0.037	-9.807	0.009836	0.023298	-0.049695	-0.111124	2.466380	-83.791388	177.369	19:35:15.254	2024-03-15
0.431	0.061	-9.675	-0.034983	0.077824	-0.038950	-0.110919	2.466660	-83.791641	177.383	19:35:15.268	2024-03-15
0.386	0.026	-9.754	0.018706	0.047746	-0.028888	-0.110166	2.467532	-83.791927	177.397	19:35:15.282	2024-03-15
0.320	-0.061	-9.757	-0.050889	-0.036980	-0.076821	-0.109999	2.467510	-83.791743	177.411	19:35:15.296	2024-03-15
0.314	-0.033	-9.740	-0.047089	0.001508	-0.064693	-0.109833	2.467487	-83.791552	177.425	19:35:15.310	2024-03-15
0.309	-0.005	-9.723	-0.043289	0.039996	-0.052566	-0.109668	2.467465	-83.791367	177.439	19:35:15.324	2024-03-15
0.304	0.023	-9.706	-0.039489	0.078483	-0.040438	-0.109501	2.467443	-83.791162	177.453	19:35:15.338	2024-03-15
0.311	0.041	-9.690	-0.032474	0.095825	-0.042023	-0.109335	2.467421	-83.790978	177.467	19:35:15.352	2024-03-15
0.419	0.068	-9.740	-0.022176	-0.003478	-0.058595	-0.109282	2.467416	-83.791149	177.481	19:35:15.366	2024-03-15
0.372	-0.015	-9.960	-0.029350	0.051569	-0.059353	-0.109377	2.467436	-83.791811	177.495	19:35:15.380	2024-03-15
0.345	0.015	-9.690	-0.058511	0.006125	-0.014510	-0.109759	2.467322	-83.791402	177.509	19:35:15.394	2024-03-15
0.467	0.063	-9.756	0.007119	-0.024869	0.003388	-0.109582	2.467379	-83.791135	177.523	19:35:15.408	2024-03-15
0.290	0.016	-9.795	-0.038333	-0.022057	-0.021771	-0.109136	2.467453	-83.791053	177.537	19:35:15.422	2024-03-15
0.421	0.045	-9.852	-0.038289	0.007520	-0.029098	-0.109590	2.466878	-83.791354	177.551	19:35:15.436	2024-03-15
0.357	0.050	-9.818	-0.027045	0.065851	-0.041691	-0.110141	2.466193	-83.791695	177.565	19:35:15.450	2024-03-15
0.375	0.028	-9.733	-0.024736	0.014671	-0.040256	-0.110522	2.465684	-83.791873	177.579	19:35:15.464	2024-03-15
0.415	0.086	-9.662	-0.005381	0.035263	-0.044315	-0.110382	2.465723	-83.791695	177.593	19:35:15.478	2024-03-15
0.406	0.079	-9.712	-0.030282	-0.003884	-0.034830	-0.110242	2.465762	-83.791497	177.607	19:35:15.492	2024-03-15
0.398	0.072	-9.761	-0.055183	-0.043030	-0.025346	-0.110102	2.465801	-83.791333	177.621	19:35:15.506	2024-03-15
0.390	0.065	-9.811	-0.080085	-0.082177	-0.015861	-0.109962	2.465840	-83.791135	177.635	19:35:15.520	2024-03-15
0.440	0.085	-9.862	-0.062893	-0.021674	-0.026799	-0.109821	2.465879	-83.790958	177.649	19:35:15.534	2024-03-15
0.348	0.065	-9.803	0.007845	0.115451	-0.021160	-0.110103	2.466179	-83.791115	177.663	19:35:15.548	2024-03-15
0.348	0.042	-9.667	-0.069111	0.012811	-0.068678	-0.110630	2.466655	-83.791565	177.677	19:35:15.562	2024-03-15
0.416	0.034	-9.844	-0.023735	0.032110	-0.053691	-0.110740	2.467015	-83.792167	177.691	19:35:15.576	2024-03-15
0.329	-0.069	-9.831	-0.049011	0.014676	-0.034474	-0.111085	2.467109	-83.791941	177.705	19:35:15.590	2024-03-15
0.429	0.064	-9.683	-0.047257	-0.039818	0.037813	-0.111470	2.466984	-83.791408	177.719	19:35:15.604	2024-03-15
0.328	0.028	-9.774	-0.056337	-0.030483	0.037125	-0.111717	2.466572	-83.790917	177.733	19:35:15.618	2024-03-15
0.353	0.062	-9.837	-0.033727	-0.067708	0.011690	-0.111625	2.466057	-83.790630	177.747	19:35:15.632	2024-03-15
0.406	0.067	-9.857	-0.027366	0.047497	-0.022718	-0.111461	2.465840	-83.790541	177.761	19:35:15.646	2024-03-15
0.368	-0.019	-9.803	0.016951	0.037792	-0.090358	-0.111275	2.466044	-83.790671	177.775	19:35:15.660	2024-03-15
0.388	-0.001	-9.828	0.006331	0.026835	-0.049404	-0.111089	2.466248	-83.790807	177.789	19:35:15.674	2024-03-15
0.407	0.018	-9.853	-0.004289	0.015878	-0.008451	-0.110903	2.466452	-83.790930	177.803	19:35:15.688	2024-03-15
0.426	0.036	-9.878	-0.014909	0.004921	0.032503	-0.110717	2.466656	-83.791067	177.817	19:35:15.702	2024-03-15
0.347	0.026	-9.795	-0.037879	-0.012125	0.049961	-0.110530	2.466859	-83.791203	177.831	19:35:15.716	2024-03-15
0.369	0.045	-9.845	-0.049513	-0.162203	-0.025611	-0.110911	2.466177	-83.791921	177.845	19:35:15.730	2024-03-15
0.430	0.066	-9.828	-0.008991	0.115211	-0.064373	-0.111335	2.465548	-83.792733	177.859	19:35:15.744	2024-03-15
0.323	0.021	-9.703	-0.026686	0.017155	-0.050789	-0.111302	2.465940	-83.793198	177.873	19:35:15.758	2024-03-15
0.454	0.061	-9.772	-0.049356	0.004917	-0.060466	-0.111806	2.466520	-83.793649	177.887	19:35:15.772	2024-03-15
0.350	-0.029	-9.876	-0.058848	0.002559	-0.035799	-0.112201	2.466680	-83.794093	177.901	19:35:15.786	2024-03-15
0.387	0.065	-9.604	-0.059355	-0.044962	-0.048253	-0.112333	2.466238	-83.794591	177.915	19:35:15.800	2024-03-15
0.400	0.059	-9.756	-0.007508	0.013109	-0.000135	-0.112099	2.466797	-83.794420	177.929	19:35:15.814	2024-03-15
0.334	0.045	-9.815	-0.059460	-0.027758	0.011465	-0.111971	2.467118	-83.794304	177.943	19:35:15.828	2024-03-15
0.348	0.028	-9.829	-0.070786	-0.027753	0.014609	-0.111922	2.467263	-83.794202	177.957	19:35:15.842	2024-03-15
0.347	0.003	-9.819	-0.074330	-0.034393	0.013384	-0.111872	2.467408	-83.794099	177.971	19:35:15.856	2024-03-15
0.345	-0.023	-9.809	-0.077875	-0.041034	0.012159	-0.111823	2.467552	-83.794004	177.985	19:35:15.870	2024-03-15
0.344	-0.049	-9.800	-0.081419	-0.047674	0.010934	-0.111773	2.467697	-83.793908	177.999	19:35:15.884	2024-03-15
0.368	0.017	-9.742	-0.058302	-0.053651	-0.003322	-0.111724	2.467842	-83.793813	178.013	19:35:15.898	2024-03-15
0.420	0.050	-9.862	-0.083691	0.023592	-0.026189	-0.112206	2.467621	-83.794065	178.027	19:35:15.912	2024-03-15
0.324	0.031	-9.749	-0.054172	-0.095357	0.000150	-0.112472	2.466989	-83.794243	178.041	19:35:15.926	2024-03-15
0.527	0.090	-9.881	-0.014536	0.038209	-0.034227	-0.112334	2.465890	-83.794257	178.055	19:35:15.940	2024-03-15
0.299	0.026	-9.762	-0.015553	0.027425	-0.042209	-0.112541	2.465767	-83.794837	178.069	19:35:15.954	2024-03-15
0.428	0.092	-9.760	-0.027572	0.012043	-0.030383	-0.112703	2.465718	-83.795254	178.083	19:35:15.968	2024-03-15
0.374	-0.007	-9.907	0.000105	0.036515	-0.043143	-0.112672	2.465773	-83.795425	178.097	19:35:15.982	2024-03-15
0.358	0.016	-9.621	-0.050140	-0.010869	-0.037339	-0.111685	2.466119	-83.794810	178.111	19:35:15.996	2024-03-15
0.471	0.060	-9.795	0.002129	-0.001995	-0.036567	-0.111125	2.466485	-83.794666	178.125	19:35:16.010	2024-03-15
0.465	0.069	-9.756	0.002677	0.010600	-0.038003	-0.110844	2.466750	-83.794817	178.139	19:35:16.024	2024-03-15
0.459	0.078	-9.718	0.003224	0.023195	-0.039439	-0.110837	2.466739	-83.795336	178.153	19:35:16.038	2024-03-15
0.454	0.087	-9.680	0.003771	0.035790	-0.040875	-0.110830	2.466728	-83.795848	178.167	19:35:16.052	2024-03-15
0.448	0.096	-9.641	0.004318	0.048385	-0.042311	-0.110824	2.466717	-83.796367	178.181	19:35:16.066	2024-03-15
0.394	0.048	-9.708	0.005993	0.068901	-0.042981	-0.110817	2.466706	-83.796879	178.195	19:35:16.080	2024-03-15
0.342	-0.034	-9.758	-0.021841	-0.045611	-0.024101	-0.109827	2.467105	-83.795650	178.209	19:35:16.094	2024-03-15
0.441	0.031	-9.924	-0.047635	0.016808	0.017135	-0.109874	2.466994	-83.794687	178.223	19:35:16.108	2024-03-15
0.295	0.005	-9.762	-0.053739	-0.021025	0.034248	-0.110607	2.466472	-83.794017	178.237	19:35:16.122	2024-03-15
0.459	0.080	-9.820	-0.035088	0.009156	-0.000945	-0.110772	2.465779	-83.793806	178.251	19:35:16.136	2024-03-15
0.309	0.067	-9.741	-0.009957	0.115484	-0.036750	-0.110797	2.465880	-83.794393	178.265	19:35:16.150	2024-03-15
0.379	0.026	-9.732	-0.027218	-0.028935	-0.076023	-0.110877	2.466050	-83.795042	178.279	19:35:16.164	2024-03-15
0.396	-0.003	-9.926	-0.000663	0.008904	-0.038652	-0.111236	2.465597	-83.795185	178.293	19:35:16.178	2024-03-15
0.399	-0.010	-9.940	-0.002340	0.026197	-0.027339	-0.111665	2.465405	-83.795103	178.307	19:35:16.192	2024-03-15
0.424	0.006	-9.918	0.000310	0.047091	-0.020985	-0.112105	2.465255	-83.795022	178.321	19:35:16.206	2024-03-15
0.450	0.022	-9.897	0.002960	0.067985	-0.014631	-0.112545	2.465105	-83.794912	178.335	19:35:16.220	2024-03-15
0.475	0.038	-9.875	0.005610	0.088879	-0.008278	-0.112984	2.464955	-83.794817	178.349	19:35:16.234	2024-03-15
0.370	0.049	-9.826	-0.023516	0.067684	-0.015824	-0.113251	2.464525	-83.794892	178.363	19:35:16.248	2024-03-15
0.385	0.023	-9.739	0.006690	0.010991	-0.055598	-0.113355	2.464102	-83.795172	178.377	19:35:16.262	2024-03-15
0.405	0.073	-9.686	-0.036391	0.042482	-0.044021	-0.113263	2.464997	-83.795814	178.391	19:35:16.276	2024-03-15
0.316	-0.051	-9.734	-0.065161	-0.067175	-0.054557	-0.112505	2.465389	-83.795684	178.405	19:35:16.290	2024-03-15
0.412	0.049	-9.809	-0.023465	-0.013012	0.001799	-0.111785	2.465451	-83.795206	178.419	19:35:16.304	2024-03-15
0.324	0.013	-9.757	-0.004376	-0.017701	0.028053	-0.111825	2.465190	-83.794687	178.433	19:35:16.318	2024-03-15
0.397	0.040	-9.837	-0.000790	-0.014303	-0.027396	-0.111617	2.465123	-83.794899	178.447	19:35:16.332	2024-03-15
0.390	0.052	-9.804	-0.000276	0.086819	-0.040069	-0.111485	2.464952	-83.795022	178.461	19:35:16.346	2024-03-15
0.325	0.037	-9.785	0.013879	0.058079	-0.029040	-0.111510	2.464600	-83.794885	178.475	19:35:16.360	2024-03-15
0.350	0.041	-9.807	0.010751	0.049868	-0.015805	-0.111536	2.464246	-83.794762	178.489	19:35:16.374	2024-03-15
0.374	0.046	-9.828	0.007623	0.041657	-0.002570	-0.111561	2.463893	-83.794639	178.503	19:35:16.388	2024-03-15
0.398	0.051	-9.849	0.004494	0.033446	0.010665	-0.111586	2.463541	-83.794502	178.517	19:35:16.402	2024-03-15
0.422	0.056	-9.870	0.001366	0.025235	0.023900	-0.111611	2.463188	-83.794373	178.531	19:35:16.416	2024-03-15
0.446	0.060	-9.892	-0.001762	0.017025	0.037134	-0.111637	2.462835	-83.794250	178.545	19:35:16.430	2024-03-15
0.412	0.063	-9.891	-0.001693	0.045458	0.011692	-0.111742	2.462363	-83.794332	178.559	19:35:16.444	2024-03-15
0.364	0.026	-9.731	-0.033223	0.034615	-0.023812	-0.112048	2.461594	-83.794981	178.573	19:35:16.458	2024-03-15
0.421	0.093	-9.620	-0.008300	-0.004236	-0.109285	-0.111952	2.462652	-83.795411	178.587	19:35:16.472	2024-03-15
0.349	-0.030	-9.767	-0.048632	-0.004410	0.002717	-0.111602	2.463743	-83.795274	178.601	19:35:16.486	2024-03-15
0.370	0.043	-9.768	-0.017418	-0.034840	-0.003957	-0.111003	2.464472	-83.794475	178.615	19:35:16.500	2024-03-15
0.392	0.028	-9.843	-0.030312	0.005054	0.042095	-0.111544	2.464027	-83.793956	178.629	19:35:16.514	2024-03-15
0.346	0.027	-9.822	-0.054209	-0.081632	0.002669	-0.112006	2.463575	-83.793642	178.643	19:35:16.528	2024-03-15
0.477	0.109	-9.825	-0.038198	0.120165	-0.006111	-0.112355	2.463325	-83.793676	178.657	19:35:16.542	2024-03-15
0.329	0.032	-9.690	-0.034852	0.060782	-0.098857	-0.112390	2.464321	-83.794823	178.671	19:35:16.556	2024-03-15
0.346	0.018	-9.624	-0.073201	0.006315	-0.076465	-0.112450	2.464449	-83.795445	178.685	19:35:16.570	2024-03-15
0.358	0.040	-9.570	-0.080075	0.003762	-0.029914	-0.112521	2.464230	-83.795834	178.699	19:35:16.584	2024-03-15
0.369	0.062	-9.516	-0.086949	0.001209	0.016636	-0.112592	2.464011	-83.796210	178.713	19:35:16.598	2024-03-15
0.437	0.066	-9.796	-0.060842	-0.034401	0.025910	-0.112554	2.464406	-83.795725	178.727	19:35:16.612	2024-03-15
0.311	0.038	-9.861	-0.043206	-0.052667	-0.005673	-0.112781	2.464442	-83.795602	178.741	19:35:16.626	2024-03-15
0.478	0.053	-9.863	-0.003798	0.066386	-0.032070	-0.113384	2.463865	-83.796135	178.755	19:35:16.640	2024-03-15
0.347	0.039	-9.778	-0.002710	0.091915	-0.036611	-0.113492	2.463647	-83.796422	178.769	19:35:16.654	2024-03-15
0.428	0.066	-9.661	0.014678	0.027616	-0.078484	-0.113328	2.464217	-83.797084	178.783	19:35:16.668	2024-03-15
0.384	0.051	-9.759	-0.011185	0.041592	-0.055500	-0.113000	2.465199	-83.797931	178.797	19:35:16.682	2024-03-15
0.320	-0.052	-9.741	-0.069476	-0.038792	-0.026160	-0.112906	2.465106	-83.798054	178.811	19:35:16.696	2024-03-15
0.328	-0.035	-9.712	-0.061198	-0.033669	-0.021769	-0.112811	2.465012	-83.798177	178.825	19:35:16.710	2024-03-15
0.337	-0.018	-9.682	-0.052920	-0.028546	-0.017378	-0.112717	2.464919	-83.798286	178.839	19:35:16.724	2024-03-15
0.345	-0.002	-9.652	-0.044642	-0.023423	-0.012987	-0.112622	2.464825	-83.798409	178.853	19:35:16.738	2024-03-15
0.353	0.015	-9.622	-0.036364	-0.018300	-0.008596	-0.112528	2.464732	-83.798525	178.867	19:35:16.752	2024-03-15
0.361	0.032	-9.592	-0.028086	-0.013178	-0.004205	-0.112434	2.464638	-83.798655	178.881	19:35:16.766	2024-03-15
0.370	0.049	-9.562	-0.019808	-0.008055	0.000186	-0.112339	2.464544	-83.798771	178.895	19:35:16.780	2024-03-15
0.378	0.066	-9.532	-0.011530	-0.002932	0.004577	-0.112245	2.464451	-83.798894	178.909	19:35:16.794	2024-03-15
0.461	0.069	-9.722	-0.017817	0.004525	-0.003412	-0.111777	2.464648	-83.798901	178.923	19:35:16.808	2024-03-15
0.283	0.022	-9.795	-0.036608	-0.065592	0.006155	-0.111150	2.464899	-83.798826	178.937	19:35:16.822	2024-03-15
0.427	0.036	-9.891	-0.022014	-0.017595	-0.013537	-0.111267	2.464180	-83.798655	178.951	19:35:16.836	2024-03-15
0.333	0.059	-9.848	-0.024557	0.093027	0.004589	-0.112331	2.463545	-83.798676	178.965	19:35:16.850	2024-03-15
0.391	0.027	-9.716	-0.042648	0.044926	-0.016989	-0.113173	2.463368	-83.798764	178.979	19:35:16.864	2024-03-15
0.414	0.081	-9.718	-0.025386	0.039725	-0.053532	-0.112514	2.464251	-83.798942	178.993	19:35:16.878	2024-03-15
0.335	-0.058	-9.738	-0.018406	-0.002741	-0.028721	-0.112620	2.465136	-83.797952	179.007	19:35:16.892	2024-03-15
0.417	0.047	-9.821	-0.041113	0.007928	-0.015355	-0.113049	2.465454	-83.797173	179.021	19:35:16.906	2024-03-15
0.289	0.003	-9.736	-0.038680	-0.034599	-0.012348	-0.113740	2.465015	-83.796900	179.035	19:35:16.920	2024-03-15
0.295	0.014	-9.701	-0.053875	-0.016526	-0.050173	-0.113399	2.464824	-83.797556	179.049	19:35:16.934	2024-03-15
0.301	0.024	-9.666	-0.069070	0.001548	-0.087998	-0.113058	2.464634	-83.798218	179.063	19:35:16.948	2024-03-15
0.342	0.049	-9.668	-0.061215	0.016912	-0.116668	-0.112809	2.464459	-83.798887	179.077	19:35:16.962	2024-03-15
0.424	0.024	-9.865	-0.004125	0.022897	-0.081685	-0.113113	2.464376	-83.799611	179.091	19:35:16.976	2024-03-15
0.334	-0.045	-9.785	-0.059436	0.026923	-0.043111	-0.113017	2.463956	-83.799304	179.105	19:35:16.990	2024-03-15
0.414	0.070	-9.642	-0.024118	-0.031938	0.026460	-0.112883	2.463740	-83.798737	179.119	19:35:17.004	2024-03-15
0.309	0.033	-9.781	-0.059373	-0.041477	0.002869	-0.113056	2.464370	-83.798566	179.133	19:35:17.018	2024-03-15
0.362	0.043	-9.893	-0.048614	-0.086704	0.019840	-0.113444	2.463921	-83.798703	179.147	19:35:17.032	2024-03-15
0.404	0.056	-9.866	-0.019626	0.115085	-0.048419	-0.113782	2.463439	-83.798949	179.161	19:35:17.046	2024-03-15
0.353	0.004	-9.735	-0.009696	0.070308	-0.013180	-0.114005	2.463154	-83.799243	179.175	19:35:17.060	2024-03-15
0.346	0.011	-9.736	-0.008756	0.075254	-0.007987	-0.114038	2.463465	-83.799352	179.189	19:35:17.074	2024-03-15
0.340	0.018	-9.736	-0.007816	0.080200	-0.002795	-0.114073	2.463777	-83.799454	179.203	19:35:17.088	2024-03-15
0.333	0.025	-9.737	-0.006876	0.085146	0.002398	-0.114106	2.464089	-83.799550	179.217	19:35:17.102	2024-03-15
0.326	0.032	-9.738	-0.005936	0.090091	0.007590	-0.114141	2.464400	-83.799673	179.231	19:35:17.116	2024-03-15
0.320	0.038	-9.739	-0.004996	0.095037	0.012783	-0.114174	2.464712	-83.799769	179.245	19:35:17.130	2024-03-15
0.313	0.045	-9.739	-0.004056	0.099983	0.017975	-0.114208	2.465023	-83.799885	179.259	19:35:17.144	2024-03-15
0.332	0.014	-9.665	-0.042552	0.016632	-0.064902	-0.114242	2.465334	-83.799987	179.273	19:35:17.158	2024-03-15
0.445	0.081	-9.815	-0.035146	0.013589	-0.054126	-0.114275	2.465547	-83.800465	179.287	19:35:17.172	2024-03-15
0.349	-0.024	-9.847	-0.051301	0.025383	-0.032546	-0.114297	2.465171	-83.800411	179.301	19:35:17.186	2024-03-15
0.383	0.065	-9.602	-0.031168	-0.066396	-0.046805	-0.114304	2.464031	-83.799598	179.315	19:35:17.200	2024-03-15
0.412	0.039	-9.772	-0.018836	0.026017	0.016167	-0.114022	2.464967	-83.799031	179.329	19:35:17.214	2024-03-15
0.338	0.022	-9.843	-0.053111	-0.048469	0.026901	-0.114067	2.465291	-83.798915	179.343	19:35:17.228	2024-03-15
0.454	0.057	-9.881	-0.011473	0.092194	-0.049464	-0.114374	2.465065	-83.799113	179.357	19:35:17.242	2024-03-15
0.354	0.019	-9.819	-0.006539	0.046205	-0.035078	-0.114791	2.464310	-83.799290	179.371	19:35:17.256	2024-03-15
0.432	0.126	-9.608	-0.031549	0.079944	-0.069217	-0.114626	2.465319	-83.799809	179.385	19:35:17.270	2024-03-15
0.419	0.061	-9.750	0.021596	0.052905	-0.049196	-0.114342	2.466528	-83.800171	179.399	19:35:17.284	2024-03-15
0.445	0.042	-9.841	-0.007533	0.015557	0.008941	-0.114335	2.466473	-83.799734	179.413	19:35:17.298	2024-03-15
0.430	0.017	-9.890	-0.031342	-0.017264	0.050267	-0.114329	2.466419	-83.799297	179.427	19:35:17.312	2024-03-15
0.344	0.008	-9.862	-0.065563	-0.060459	-0.002461	-0.114753	2.465723	-83.799195	179.441	19:35:17.326	2024-03-15
0.510	0.098	-9.841	-0.029313	0.082493	-0.058221	-0.115749	2.464173	-83.799502	179.455	19:35:17.340	2024-03-15
0.309	0.056	-9.668	-0.021950	0.069056	-0.029581	-0.115359	2.465010	-83.799980	179.469	19:35:17.354	2024-03-15
0.445	0.086	-9.756	0.024810	-0.004902	-0.096442	-0.115074	2.465356	-83.800568	179.483	19:35:17.368	2024-03-15
0.376	-0.026	-9.934	-0.031576	0.014086	-0.030270	-0.114805	2.465287	-83.800991	179.497	19:35:17.382	2024-03-15
0.359	0.009	-9.628	-0.029723	-0.000614	0.012402	-0.114150	2.464933	-83.799748	179.511	19:35:17.396	2024-03-15
0.478	0.057	-9.824	-0.025838	-0.007258	-0.006037	-0.113936	2.464795	-83.799366	179.525	19:35:17.410	2024-03-15
0.275	0.031	-9.795	-0.016086	-0.072172	0.008116	-0.113964	2.464786	-83.799400	179.539	19:35:17.424	2024-03-15
0.303	0.034	-9.813	-0.017228	-0.066123	0.010413	-0.114156	2.464880	-83.799564	179.553	19:35:17.438	2024-03-15
0.330	0.038	-9.832	-0.018371	-0.060075	0.012711	-0.114349	2.464974	-83.799748	179.567	19:35:17.452	2024-03-15
0.357	0.041	-9.851	-0.019513	-0.054027	0.015009	-0.114542	2.465068	-83.799912	179.581	19:35:17.466	2024-03-15
0.385	0.044	-9.869	-0.020655	-0.047979	0.017306	-0.114734	2.465161	-83.800069	179.595	19:35:17.480	2024-03-15
0.412	0.047	-9.888	-0.021798	-0.041931	0.019604	-0.114927	2.465256	-83.800240	179.609	19:35:17.494	2024-03-15
0.440	0.051	-9.906	-0.022940	-0.035882	0.021901	-0.115119	2.465349	-83.800417	179.623	19:35:17.508	2024-03-15
0.307	0.012	-9.808	-0.069803	-0.027106	-0.028269	-0.115286	2.465355	-83.800656	179.637	19:35:17.522	2024-03-15
0.468	0.054	-9.871	-0.006217	0.052413	-0.040292	-0.115294	2.464832	-83.801271	179.651	19:35:17.536	2024-03-15
0.294	0.063	-9.729	0.040962	0.151368	-0.047696	-0.115232	2.465487	-83.801715	179.665	19:35:17.550	2024-03-15
0.382	0.045	-9.692	-0.042544	0.058924	-0.050108	-0.115158	2.466438	-83.802159	179.679	19:35:17.564	2024-03-15
0.395	0.034	-9.879	-0.042200	0.024734	-0.037281	-0.115125	2.466950	-83.802856	179.693	19:35:17.578	2024-03-15
0.343	-0.017	-9.742	-0.064033	0.017378	-0.033388	-0.115290	2.467019	-83.802255	179.707	19:35:17.592	2024-03-15
0.450	0.054	-9.752	-0.068093	-0.004110	-0.002290	-0.115428	2.467023	-83.801579	179.721	19:35:17.606	2024-03-15
0.274	0.002	-9.752	-0.074196	-0.041022	-0.001070	-0.115484	2.467041	-83.801073	179.735	19:35:17.620	2024-03-15
0.395	0.042	-9.849	-0.059550	-0.001975	-0.000614	-0.116649	2.466806	-83.801435	179.749	19:35:17.634	2024-03-15
0.457	0.054	-9.797	-0.051378	0.054543	-0.083340	-0.117223	2.466939	-83.801927	179.763	19:35:17.648	2024-03-15
0.437	0.078	-9.687	-0.045956	0.077250	-0.098574	-0.117353	2.467348	-83.802514	179.777	19:35:17.662	2024-03-15
0.410	0.077	-9.689	-0.011485	0.032526	-0.076560	-0.117484	2.467757	-83.803102	179.791	19:35:17.676	2024-03-15
0.324	-0.063	-9.789	-0.053367	0.030177	-0.030278	-0.116647	2.467515	-83.803272	179.805	19:35:17.690	2024-03-15
0.402	0.038	-9.808	-0.065274	-0.034982	-0.041835	-0.115739	2.467148	-83.803293	179.819	19:35:17.704	2024-03-15
0.313	0.012	-9.705	0.013305	0.035644	-0.013568	-0.115621	2.467122	-83.803348	179.833	19:35:17.718	2024-03-15
0.401	0.058	-9.843	-0.076024	-0.090885	-0.017553	-0.115953	2.466748	-83.803307	179.847	19:35:17.732	2024-03-15
0.390	0.080	-9.826	-0.005869	0.094893	-0.031125	-0.116251	2.466602	-83.803566	179.861	19:35:17.746	2024-03-15
0.313	0.000	-9.696	-0.045038	-0.032660	-0.088825	-0.116404	2.466839	-83.804270	179.875	19:35:17.760	2024-03-15
0.458	0.123	-9.774	0.008532	0.044972	-0.073613	-0.116289	2.466677	-83.803990	179.889	19:35:17.774	2024-03-15
0.442	0.101	-9.778	0.007304	0.044951	-0.068464	-0.116175	2.466515	-83.803730	179.903	19:35:17.788	2024-03-15
0.427	0.079	-9.782	0.006077	0.044929	-0.063316	-0.116060	2.466352	-83.803457	179.917	19:35:17.802	2024-03-15
0.411	0.057	-9.786	0.004849	0.044908	-0.058168	-0.115945	2.466190	-83.803190	179.931	19:35:17.816	2024-03-15
0.396	0.035	-9.791	0.003622	0.044886	-0.053020	-0.115831	2.466028	-83.802931	179.945	19:35:17.830	2024-03-15
0.380	0.014	-9.795	0.002394	0.044864	-0.047872	-0.115716	2.465866	-83.802651	179.959	19:35:17.844	2024-03-15
0.364	-0.008	-9.799	0.001166	0.044843	-0.042723	-0.115602	2.465704	-83.802391	179.973	19:35:17.858	2024-03-15
0.432	0.066	-9.678	-0.039372	0.083695	-0.104647	-0.115186	2.466390	-83.803409	179.987	19:35:17.872	2024-03-15
0.364	-0.016	-9.739	0.002961	0.049069	-0.060303	-0.114979	2.467183	-83.804051	180.001	19:35:17.886	2024-03-15
0.364	0.071	-9.711	-0.071757	-0.058346	-0.041381	-0.115116	2.467927	-83.803908	180.015	19:35:17.900	2024-03-15
0.383	0.038	-9.834	-0.034113	0.008767	0.000979	-0.115277	2.468150	-83.803771	180.029	19:35:17.914	2024-03-15
0.358	0.037	-9.828	-0.030291	-0.117339	-0.023793	-0.115448	2.467522	-83.803751	180.043	19:35:17.928	2024-03-15
0.479	0.061	-9.881	-0.011363	0.086551	0.006149	-0.115627	2.466564	-83.803880	180.057	19:35:17.942	2024-03-15
0.312	0.042	-9.698	-0.042098	0.100664	-0.054608	-0.115805	2.467465	-83.804297	180.071	19:35:17.956	2024-03-15
0.471	0.115	-9.729	0.058541	-0.035109	-0.004070	-0.115532	2.467954	-83.804481	180.085	19:35:17.970	2024-03-15
0.372	0.003	-9.907	-0.003104	0.050246	-0.024447	-0.115324	2.468106	-83.804276	180.099	19:35:17.984	2024-03-15
0.338	0.010	-9.852	-0.007032	0.040297	-0.015797	-0.115726	2.467829	-83.803266	180.113	19:35:17.998	2024-03-15
0.303	0.016	-9.796	-0.010959	0.030349	-0.007147	-0.116129	2.467552	-83.802262	180.127	19:35:18.012	2024-03-15
0.315	0.032	-9.817	-0.046919	-0.017783	-0.018302	-0.116578	2.467123	-83.801544	180.141	19:35:18.026	2024-03-15
0.476	0.051	-9.866	-0.001421	0.019402	0.029295	-0.117089	2.466492	-83.801196	180.155	19:35:18.040	2024-03-15
0.350	0.027	-9.825	-0.028125	0.046568	-0.039547	-0.117954	2.465520	-83.801647	180.169	19:35:18.054	2024-03-15
0.415	0.076	-9.658	-0.047884	0.049233	-0.064162	-0.118126	2.465773	-83.802104	180.183	19:35:18.068	2024-03-15
0.385	0.049	-9.747	-0.046401	-0.009618	-0.013786	-0.117763	2.466716	-83.802412	180.197	19:35:18.082	2024-03-15
0.354	0.005	-9.769	-0.069368	-0.058175	-0.042395	-0.117307	2.466277	-83.801790	180.211	19:35:18.096	2024-03-15
0.458	0.056	-9.862	-0.047282	0.082434	0.026033	-0.117460	2.466591	-83.801763	180.225	19:35:18.110	2024-03-15
0.290	0.008	-9.643	-0.059354	0.022245	-0.035339	-0.117662	2.467099	-83.801941	180.239	19:35:18.124	2024-03-15
0.322	0.016	-9.664	-0.056308	0.027262	-0.033406	-0.117380	2.467339	-83.802057	180.253	19:35:18.138	2024-03-15
0.353	0.024	-9.685	-0.053261	0.032279	-0.031473	-0.117098	2.467579	-83.802180	180.267	19:35:18.152	2024-03-15
0.385	0.032	-9.707	-0.050215	0.037296	-0.029539	-0.116816	2.467818	-83.802303	180.281	19:35:18.166	2024-03-15
0.417	0.040	-9.728	-0.047169	0.042314	-0.027606	-0.116534	2.468058	-83.802425	180.295	19:35:18.180	2024-03-15
0.449	0.047	-9.749	-0.044122	0.047331	-0.025673	-0.116252	2.468297	-83.802548	180.309	19:35:18.194	2024-03-15
0.481	0.055	-9.770	-0.041076	0.052348	-0.023740	-0.115969	2.468537	-83.802658	180.323	19:35:18.208	2024-03-15
0.290	0.023	-9.801	-0.026376	-0.070593	-0.012558	-0.115787	2.468606	-83.802808	180.337	19:35:18.222	2024-03-15
0.415	0.060	-9.915	-0.046351	0.034000	-0.024144	-0.116198	2.467656	-83.803033	180.351	19:35:18.236	2024-03-15
0.343	0.065	-9.820	0.031373	0.082114	-0.059716	-0.116523	2.467671	-83.803389	180.365	19:35:18.250	2024-03-15
0.389	0.047	-9.679	-0.021663	0.052445	-0.052257	-0.116722	2.468256	-83.803805	180.379	19:35:18.264	2024-03-15
0.406	0.069	-9.742	-0.043288	0.053048	-0.042851	-0.116691	2.469296	-83.804263	180.393	19:35:18.278	2024-03-15
0.327	-0.055	-9.749	-0.046049	-0.016841	-0.019155	-0.116929	2.468561	-83.803361	180.407	19:35:18.292	2024-03-15
0.435	0.060	-9.814	-0.069855	0.000077	-0.033385	-0.117648	2.468075	-83.802781	180.421	19:35:18.306	2024-03-15
0.267	0.006	-9.727	-0.096820	-0.012793	0.000378	-0.118945	2.468316	-83.802917	180.435	19:35:18.320	2024-03-15
0.428	0.057	-9.878	-0.044468	-0.067645	-0.026948	-0.119217	2.466961	-83.803368	180.449	19:35:18.334	2024-03-15
0.491	0.059	-9.881	-0.007275	0.064002	-0.047520	-0.119591	2.466420	-83.803908	180.463	19:35:18.348	2024-03-15
0.449	0.037	-9.899	0.000349	0.074469	-0.043068	-0.120041	2.466490	-83.804515	180.477	19:35:18.362	2024-03-15
0.407	0.014	-9.917	0.007974	0.084936	-0.038617	-0.120492	2.466558	-83.805130	180.491	19:35:18.376	2024-03-15
0.326	-0.027	-9.753	-0.059911	0.037924	0.000263	-0.120088	2.466414	-83.804413	180.505	19:35:18.390	2024-03-15
0.418	0.076	-9.654	-0.072817	-0.072884	0.030530	-0.119662	2.466112	-83.803259	180.519	19:35:18.404	2024-03-15
0.326	0.018	-9.829	-0.058296	-0.036641	0.012790	-0.120043	2.465629	-83.802446	180.533	19:35:18.418	2024-03-15
0.372	0.042	-9.872	-0.078708	-0.046636	-0.035288	-0.120839	2.464790	-83.802644	180.547	19:35:18.432	2024-03-15
0.396	0.066	-9.810	-0.013037	0.088405	-0.040603	-0.121318	2.464157	-83.803177	180.561	19:35:18.446	2024-03-15
0.370	0.000	-9.760	-0.041012	-0.017539	-0.053377	-0.121283	2.463880	-83.803935	180.575	19:35:18.460	2024-03-15
0.419	0.077	-9.711	0.016846	0.037594	-0.095684	-0.120904	2.464426	-83.804563	180.589	19:35:18.474	2024-03-15
0.404	0.069	-9.761	-0.005138	0.021295	-0.051146	-0.120685	2.464638	-83.805041	180.603	19:35:18.488	2024-03-15
0.412	0.076	-9.763	-0.014410	0.017246	-0.056686	-0.120585	2.464601	-83.805397	180.617	19:35:18.502	2024-03-15
0.420	0.083	-9.766	-0.023681	0.013198	-0.062227	-0.120484	2.464565	-83.805752	180.631	19:35:18.516	2024-03-15
0.428	0.089	-9.769	-0.032952	0.009150	-0.067767	-0.120384	2.464529	-83.806100	180.645	19:35:18.530	2024-03-15
0.436	0.096	-9.772	-0.042223	0.005101	-0.073307	-0.120284	2.464492	-83.806462	180.659	19:35:18.544	2024-03-15
0.445	0.103	-9.775	-0.051494	0.001053	-0.078848	-0.120183	2.464456	-83.806810	180.673	19:35:18.558	2024-03-15
0.435	0.086	-9.813	-0.054998	-0.003075	-0.077663	-0.120083	2.464419	-83.807166	180.687	19:35:18.572	2024-03-15
0.350	-0.006	-9.855	-0.029917	0.031112	-0.049883	-0.120131	2.464733	-83.806927	180.701	19:35:18.586	2024-03-15
0.377	0.053	-9.505	-0.043210	-0.006209	0.026469	-0.120376	2.465515	-83.805895	180.715	19:35:18.600	2024-03-15
0.413	0.028	-9.785	-0.023379	-0.027946	0.007481	-0.120630	2.465752	-83.805376	180.729	19:35:18.614	2024-03-15
0.336	0.042	-9.896	-0.077142	-0.120994	0.009610	-0.120808	2.464959	-83.805035	180.743	19:35:18.628	2024-03-15
0.457	0.056	-9.853	-0.044723	0.063517	0.026432	-0.121017	2.463496	-83.804925	180.757	19:35:18.642	2024-03-15
0.346	0.032	-9.786	-0.029099	-0.000575	-0.070689	-0.121757	2.462642	-83.805301	180.771	19:35:18.656	2024-03-15
0.431	0.093	-9.630	0.000067	0.052832	-0.022970	-0.121978	2.463088	-83.805847	180.785	19:35:18.670	2024-03-15
0.383	0.014	-9.757	-0.050371	-0.014424	-0.052815	-0.121768	2.463859	-83.806168	180.799	19:35:18.684	2024-03-15
0.334	-0.047	-9.776	-0.028048	-0.034576	-0.039779	-0.121005	2.464146	-83.805786	180.813	19:35:18.698	2024-03-15
0.344	-0.004	-9.819	-0.037370	-0.054479	-0.025256	-0.121247	2.463840	-83.805554	180.827	19:35:18.712	2024-03-15
0.354	0.038	-9.863	-0.046691	-0.074382	-0.010734	-0.121656	2.463435	-83.805335	180.841	19:35:18.726	2024-03-15
0.507	0.102	-9.882	-0.030642	0.030503	-0.005491	-0.122066	2.463031	-83.805123	180.855	19:35:18.740	2024-03-15
0.327	0.025	-9.736	0.002359	0.056622	-0.057530	-0.121900	2.463340	-83.805533	180.869	19:35:18.754	2024-03-15
0.431	0.094	-9.752	0.004974	0.041756	-0.076410	-0.121617	2.463759	-83.806278	180.883	19:35:18.768	2024-03-15
0.380	-0.032	-9.890	0.029342	0.072817	-0.083472	-0.121148	2.464260	-83.807125	180.897	19:35:18.782	2024-03-15
0.363	0.030	-9.631	-0.035318	0.008352	-0.017780	-0.120088	2.464764	-83.806954	180.911	19:35:18.796	2024-03-15
0.471	0.067	-9.826	-0.036333	0.004797	0.013747	-0.119950	2.465228	-83.806373	180.925	19:35:18.810	2024-03-15
0.300	0.025	-9.846	-0.064226	-0.036587	0.019581	-0.120261	2.465531	-83.805827	180.939	19:35:18.824	2024-03-15
0.457	0.056	-9.830	-0.030705	0.104870	-0.006155	-0.120767	2.465475	-83.805820	180.953	19:35:18.838	2024-03-15
0.453	0.050	-9.803	-0.021017	0.112118	-0.013751	-0.120848	2.465229	-83.805786	180.967	19:35:18.852	2024-03-15
0.418	0.038	-9.787	-0.017108	0.085318	-0.017134	-0.120859	2.464951	-83.805793	180.981	19:35:18.866	2024-03-15
0.383	0.026	-9.771	-0.013198	0.058518	-0.020516	-0.120871	2.464673	-83.805779	180.995	19:35:18.880	2024-03-15
0.348	0.015	-9.755	-0.009289	0.031718	-0.023898	-0.120882	2.464396	-83.805752	181.009	19:35:18.894	2024-03-15
0.313	0.003	-9.740	-0.005380	0.004918	-0.027281	-0.120893	2.464118	-83.805738	181.023	19:35:18.908	2024-03-15
0.298	0.001	-9.746	0.000318	-0.040970	-0.035574	-0.120846	2.463827	-83.805745	181.037	19:35:18.922	2024-03-15
0.452	0.066	-9.841	0.004231	0.009367	-0.037601	-0.120456	2.463456	-83.805861	181.051	19:35:18.936	2024-03-15
0.320	0.049	-9.749	-0.023151	0.148117	-0.048105	-0.120387	2.464025	-83.806155	181.065	19:35:18.950	2024-03-15
0.374	0.038	-9.708	0.008289	-0.014684	-0.038785	-0.120308	2.464535	-83.806640	181.079	19:35:18.964	2024-03-15
0.408	0.018	-9.933	-0.003988	0.031213	-0.061225	-0.119885	2.463956	-83.807439	181.093	19:35:18.978	2024-03-15
0.330	-0.009	-9.740	-0.026777	0.072008	-0.052356	-0.119865	2.464946	-83.806858	181.107	19:35:18.992	2024-03-15
0.448	0.063	-9.672	-0.023346	0.028571	-0.002988	-0.119769	2.465849	-83.806339	181.121	19:35:19.006	2024-03-15
0.281	0.026	-9.804	-0.039612	-0.031876	-0.020861	-0.119480	2.466287	-83.806237	181.135	19:35:19.020	2024-03-15
0.391	0.042	-9.890	-0.069458	-0.019577	-0.017741	-0.120339	2.465680	-83.806455	181.149	19:35:19.034	2024-03-15
0.452	0.035	-9.865	-0.072722	0.070789	-0.034319	-0.120722	2.465416	-83.806544	181.163	19:35:19.048	2024-03-15
0.407	-0.004	-9.826	-0.074993	0.040088	-0.021806	-0.120748	2.465408	-83.806530	181.177	19:35:19.062	2024-03-15
0.362	-0.043	-9.788	-0.077265	0.009387	-0.009293	-0.120775	2.465399	-83.806510	181.191	19:35:19.076	2024-03-15
0.317	-0.082	-9.750	-0.079537	-0.021314	0.003220	-0.120802	2.465392	-83.806489	181.205	19:35:19.090	2024-03-15
0.409	0.040	-9.790	-0.063890	-0.036258	-0.006187	-0.120734	2.465231	-83.806332	181.219	19:35:19.104	2024-03-15
0.316	0.013	-9.780	0.003231	-0.032354	0.056057	-0.120432	2.464690	-83.805793	181.233	19:35:19.118	2024-03-15
0.401	0.038	-9.875	-0.049622	-0.071805	-0.014748	-0.120804	2.463708	-83.805308	181.247	19:35:19.132	2024-03-15
0.383	0.087	-9.795	-0.013823	0.109594	-0.004238	-0.121019	2.463378	-83.805362	181.261	19:35:19.146	2024-03-15
0.311	0.017	-9.622	-0.036243	-0.007886	-0.041614	-0.120877	2.464015	-83.806162	181.275	19:35:19.160	2024-03-15
0.444	0.065	-9.828	-0.018431	0.004779	-0.096007	-0.120889	2.464097	-83.807234	181.289	19:35:19.174	2024-03-15
0.344	-0.049	-9.822	-0.015576	0.015508	-0.070165	-0.121037	2.464001	-83.807391	181.303	19:35:19.188	2024-03-15
0.372	0.061	-9.566	-0.061179	-0.040956	0.037982	-0.121256	2.463836	-83.806988	181.317	19:35:19.202	2024-03-15
0.379	0.062	-9.600	-0.053695	-0.028882	0.019450	-0.121275	2.464078	-83.807111	181.331	19:35:19.216	2024-03-15
0.385	0.062	-9.634	-0.046211	-0.016808	0.000917	-0.121294	2.464319	-83.807241	181.345	19:35:19.230	2024-03-15
0.392	0.063	-9.668	-0.038727	-0.004734	-0.017615	-0.121313	2.464561	-83.807357	181.359	19:35:19.244	2024-03-15
0.399	0.063	-9.702	-0.031244	0.007340	-0.036147	-0.121332	2.464803	-83.807493	181.373	19:35:19.258	2024-03-15
0.405	0.064	-9.736	-0.023760	0.019414	-0.054679	-0.121351	2.465044	-83.807616	181.387	19:35:19.272	2024-03-15
0.355	-0.023	-9.765	-0.055806	0.019938	-0.025280	-0.121296	2.465209	-83.807179	181.401	19:35:19.286	2024-03-15
0.363	0.058	-9.774	-0.064648	-0.111452	-0.007024	-0.121144	2.465270	-83.806025	181.415	19:35:19.300	2024-03-15
0.382	0.038	-9.816	-0.003147	0.037541	0.033249	-0.121230	2.465494	-83.805923	181.429	19:35:19.314	2024-03-15
0.356	0.029	-9.814	-0.086293	-0.043441	-0.001788	-0.121364	2.465476	-83.805977	181.443	19:35:19.328	2024-03-15
0.470	0.072	-9.834	0.027074	0.137906	-0.062619	-0.121497	2.465389	-83.806271	181.457	19:35:19.342	2024-03-15
0.328	0.010	-9.717	-0.014285	0.055567	-0.089185	-0.121410	2.465974	-83.807227	181.471	19:35:19.356	2024-03-15
0.474	0.090	-9.779	-0.064312	-0.027455	-0.023132	-0.121770	2.466288	-83.807808	181.485	19:35:19.370	2024-03-15
0.368	-0.016	-9.899	-0.005297	0.079624	-0.038207	-0.122192	2.466389	-83.808033	181.499	19:35:19.384	2024-03-15
0.367	0.043	-9.598	-0.049126	0.055305	0.008027	-0.122319	2.466229	-83.807828	181.513	19:35:19.398	2024-03-15
0.404	0.045	-9.634	-0.057261	0.039247	-0.006086	-0.122313	2.466141	-83.807719	181.527	19:35:19.412	2024-03-15
0.438	0.030	-9.745	-0.070203	0.035181	-0.023669	-0.122285	2.466065	-83.807623	181.541	19:35:19.426	2024-03-15
0.472	0.016	-9.857	-0.083145	0.031115	-0.041251	-0.122257	2.465988	-83.807534	181.555	19:35:19.440	2024-03-15
0.371	0.040	-9.837	-0.058213	0.039649	-0.035907	-0.123567	2.465020	-83.807849	181.569	19:35:19.454	2024-03-15
0.394	0.095	-9.622	-0.051090	0.017552	-0.044010	-0.123864	2.465061	-83.808019	181.583	19:35:19.468	2024-03-15
0.393	0.025	-9.759	-0.029999	-0.034789	-0.038623	-0.123467	2.465520	-83.807999	181.597	19:35:19.482	2024-03-15
0.346	-0.024	-9.766	-0.070866	-0.059346	0.038854	-0.123477	2.463956	-83.807480	181.611	19:35:19.496	2024-03-15
0.486	0.023	-9.878	-0.067937	0.049141	0.016090	-0.123961	2.463306	-83.806940	181.625	19:35:19.510	2024-03-15
0.330	0.008	-9.840	-0.031441	-0.040514	0.034383	-0.124490	2.462692	-83.806421	181.639	19:35:19.524	2024-03-15
0.487	0.092	-9.793	-0.016289	0.003364	0.010646	-0.124658	2.461251	-83.805970	181.653	19:35:19.538	2024-03-15
0.493	0.097	-9.798	-0.012915	0.008389	0.009799	-0.124828	2.460677	-83.806325	181.667	19:35:19.552	2024-03-15
0.465	0.086	-9.838	-0.027921	-0.012329	0.005741	-0.124999	2.460248	-83.806810	181.681	19:35:19.566	2024-03-15
0.437	0.076	-9.879	-0.042927	-0.033047	0.001682	-0.125168	2.459820	-83.807289	181.695	19:35:19.580	2024-03-15
0.410	0.065	-9.920	-0.057933	-0.053765	-0.002377	-0.125338	2.459391	-83.807767	181.709	19:35:19.594	2024-03-15
0.382	0.054	-9.961	-0.072939	-0.074483	-0.006435	-0.125508	2.458962	-83.808238	181.723	19:35:19.608	2024-03-15
0.355	0.043	-10.002	-0.087945	-0.095202	-0.010494	-0.125679	2.458533	-83.808723	181.737	19:35:19.622	2024-03-15
0.417	0.045	-9.879	-0.044406	-0.009994	-0.011231	-0.125848	2.458104	-83.809194	181.751	19:35:19.636	2024-03-15
0.367	0.095	-9.830	-0.015757	0.034558	-0.026603	-0.125664	2.457224	-83.809754	181.765	19:35:19.650	2024-03-15
0.385	0.054	-9.702	0.021230	-0.022898	-0.084368	-0.125465	2.456745	-83.810553	181.779	19:35:19.664	2024-03-15
0.422	0.077	-9.677	-0.058911	0.039134	-0.101196	-0.125581	2.457717	-83.811892	181.793	19:35:19.678	2024-03-15
0.329	-0.029	-9.772	-0.081800	-0.063860	-0.094428	-0.125039	2.459199	-83.812124	181.807	19:35:19.692	2024-03-15
0.427	0.056	-9.890	-0.034759	-0.051895	-0.041459	-0.124553	2.459912	-83.812056	181.821	19:35:19.706	2024-03-15
0.284	0.039	-9.706	0.005835	0.012514	0.036104	-0.124286	2.459483	-83.811810	181.835	19:35:19.720	2024-03-15
0.430	0.081	-9.804	-0.018569	-0.028982	-0.038302	-0.124109	2.458961	-83.812336	181.849	19:35:19.734	2024-03-15
0.356	0.067	-9.773	0.036763	0.043689	-0.053791	-0.123815	2.458926	-83.812411	181.863	19:35:19.748	2024-03-15
0.329	0.056	-9.731	0.038740	0.006343	-0.044614	-0.123434	2.459257	-83.812138	181.877	19:35:19.762	2024-03-15
0.343	0.057	-9.696	0.021660	-0.026157	-0.036296	-0.123053	2.459588	-83.811865	181.891	19:35:19.776	2024-03-15
0.357	0.058	-9.661	0.004579	-0.058657	-0.027977	-0.122671	2.459920	-83.811605	181.905	19:35:19.790	2024-03-15
0.419	0.064	-9.691	-0.000445	-0.037517	-0.015863	-0.122206	2.460431	-83.811523	181.919	19:35:19.804	2024-03-15
0.321	0.028	-9.709	-0.012922	0.013731	-0.027057	-0.121531	2.461390	-83.811899	181.933	19:35:19.818	2024-03-15
0.358	0.045	-9.887	-0.000677	-0.043388	-0.035590	-0.121476	2.460870	-83.812541	181.947	19:35:19.832	2024-03-15
0.410	0.054	-9.837	0.060591	0.084912	-0.093185	-0.121178	2.460268	-83.813326	181.961	19:35:19.846	2024-03-15
0.380	-0.015	-9.820	0.054614	0.052498	-0.076808	-0.120418	2.459882	-83.814249	181.975	19:35:19.860	2024-03-15
0.414	0.087	-9.638	0.025399	0.066923	-0.087681	-0.118975	2.461735	-83.814727	181.989	19:35:19.874	2024-03-15
0.326	-0.050	-9.749	-0.032259	0.030582	-0.056905	-0.118986	2.463107	-83.813101	182.003	19:35:19.888	2024-03-15
0.372	0.035	-9.750	-0.016243	-0.017552	-0.058007	-0.119929	2.464139	-83.810362	182.017	19:35:19.902	2024-03-15
0.365	0.029	-9.766	-0.007130	0.009892	-0.065659	-0.119933	2.465294	-83.810499	182.031	19:35:19.916	2024-03-15
0.358	0.022	-9.782	0.001984	0.037336	-0.073312	-0.119937	2.466448	-83.810642	182.045	19:35:19.930	2024-03-15
0.351	0.016	-9.798	0.011097	0.064781	-0.080964	-0.119942	2.467602	-83.810799	182.059	19:35:19.944	2024-03-15
0.344	0.009	-9.814	0.020210	0.092225	-0.088616	-0.119946	2.468756	-83.810943	182.073	19:35:19.958	2024-03-15
0.337	0.003	-9.830	0.029324	0.119669	-0.096268	-0.119950	2.469911	-83.811079	182.087	19:35:19.972	2024-03-15
0.330	-0.003	-9.846	0.038437	0.147114	-0.103920	-0.119954	2.471065	-83.811223	182.101	19:35:19.986	2024-03-15
0.371	0.023	-9.585	-0.047870	0.041536	-0.043431	-0.119958	2.472219	-83.811359	182.115	19:35:20.000	2024-03-15
0.409	0.051	-9.761	-0.023839	0.110431	-0.023356	-0.119841	2.474109	-83.811243	182.129	19:35:20.014	2024-03-15
0.309	0.025	-9.897	-0.042894	-0.011985	-0.007835	-0.119423	2.474536	-83.811250	182.143	19:35:20.028	2024-03-15
0.436	0.080	-9.851	0.024298	0.041067	-0.031569	-0.118865	2.473886	-83.811434	182.157	19:35:20.042	2024-03-15
0.349	0.045	-9.873	0.049129	0.092966	-0.068462	-0.118821	2.473371	-83.812070	182.171	19:35:20.056	2024-03-15
0.418	0.115	-9.527	-0.012055	0.057395	-0.097938	-0.118316	2.474214	-83.812807	182.185	19:35:20.070	2024-03-15
0.386	0.034	-9.813	-0.009264	-0.031967	-0.070823	-0.118010	2.473389	-83.812637	182.199	19:35:20.084	2024-03-15
0.349	0.032	-9.787	-0.043992	-0.134378	-0.110589	-0.118661	2.467035	-83.810116	182.213	19:35:20.098	2024-03-15
0.352	0.068	-9.760	-0.043766	-0.121205	-0.103646	-0.119267	2.464049	-83.810021	182.227	19:35:20.112	2024-03-15
0.349	0.075	-9.753	-0.036831	-0.078442	-0.085475	-0.119866	2.461625	-83.810342	182.241	19:35:20.126	2024-03-15
0.346	0.083	-9.746	-0.029895	-0.035679	-0.067305	-0.120466	2.459200	-83.810669	182.255	19:35:20.140	2024-03-15
0.335	0.036	-9.715	-0.052647	-0.061585	-0.062024	-0.121065	2.456776	-83.810984	182.269	19:35:20.154	2024-03-15
0.428	0.063	-9.753	-0.057254	-0.193887	-0.039106	-0.121613	2.454605	-83.811400	182.283	19:35:20.168	2024-03-15
0.401	-0.033	-9.983	-0.055507	-0.053481	-0.046978	-0.122142	2.453084	-83.811264	182.297	19:35:20.182	2024-03-15
0.354	-0.006	-9.676	-0.064568	-0.116068	-0.021702	-0.122791	2.454322	-83.807302	182.311	19:35:20.196	2024-03-15
0.469	0.100	-9.705	-0.000691	-0.164205	-0.044361	-0.122833	2.453779	-83.806100	182.325	19:35:20.210	2024-03-15
0.320	-0.045	-9.836	-0.099637	-0.201405	-0.002870	-0.122857	2.452283	-83.805991	182.339	19:35:20.224	2024-03-15
0.445	0.035	-9.885	-0.023693	-0.000885	0.032704	-0.123445	2.450184	-83.805827	182.353	19:35:20.238	2024-03-15
0.379	-0.015	-9.751	0.034607	0.011613	0.025893	-0.123478	2.448848	-83.804782	182.367	19:35:20.252	2024-03-15
0.373	-0.018	-9.752	-0.006775	-0.048303	0.031517	-0.123696	2.448572	-83.803798	182.381	19:35:20.266	2024-03-15
0.369	0.001	-9.745	-0.019846	-0.000048	0.031220	-0.124285	2.449542	-83.803067	182.395	19:35:20.280	2024-03-15
0.365	0.019	-9.739	-0.032917	0.048206	0.030924	-0.124874	2.450511	-83.802350	182.409	19:35:20.294	2024-03-15
0.361	0.037	-9.733	-0.045988	0.096461	0.030627	-0.125463	2.451481	-83.801633	182.423	19:35:20.308	2024-03-15
0.357	0.056	-9.726	-0.059059	0.144716	0.030330	-0.126053	2.452451	-83.800916	182.437	19:35:20.322	2024-03-15
0.353	0.074	-9.720	-0.072129	0.192970	0.030033	-0.126642	2.453420	-83.800206	182.451	19:35:20.336	2024-03-15
0.349	0.092	-9.714	-0.085200	0.241225	0.029737	-0.127231	2.454390	-83.799482	182.465	19:35:20.350	2024-03-15
0.363	0.035	-9.757	-0.078147	0.129624	-0.014134	-0.127885	2.455647	-83.799085	182.479	19:35:20.364	2024-03-15
0.423	0.066	-9.822	-0.059401	0.191849	-0.059230	-0.128704	2.457620	-83.799468	182.493	19:35:20.378	2024-03-15
0.324	0.035	-9.732	-0.090130	0.113361	-0.012611	-0.127884	2.458561	-83.803300	182.507	19:35:20.392	2024-03-15
0.435	0.082	-9.729	-0.101367	0.103478	0.001233	-0.127566	2.459733	-83.805765	182.521	19:35:20.406	2024-03-15
0.309	0.031	-9.677	-0.095697	0.120541	-0.043128	-0.128280	2.461445	-83.805649	182.535	19:35:20.420	2024-03-15
0.381	0.072	-9.853	-0.137402	0.035778	0.014608	-0.129439	2.461819	-83.805520	182.549	19:35:20.434	2024-03-15
0.391	0.097	-9.855	-0.064875	0.170743	-0.062522	-0.130447	2.462428	-83.805513	182.563	19:35:20.448	2024-03-15
0.364	0.081	-9.751	-0.061474	0.118825	-0.014074	-0.131240	2.463398	-83.805704	182.577	19:35:20.462	2024-03-15
0.415	0.122	-9.698	-0.047694	0.060129	-0.077363	-0.131419	2.465472	-83.806578	182.591	19:35:20.476	2024-03-15
0.441	0.098	-9.776	-0.029954	0.049164	-0.070991	-0.131649	2.465910	-83.806838	182.605	19:35:20.490	2024-03-15
0.458	0.091	-9.783	0.016169	0.045998	-0.036134	-0.131901	2.465693	-83.806851	182.619	19:35:20.504	2024-03-15
0.334	0.033	-9.782	0.002097	0.029889	0.009239	-0.132152	2.465477	-83.806865	182.633	19:35:20.518	2024-03-15
0.390	0.053	-9.975	-0.050348	-0.094224	-0.004138	-0.132017	2.464196	-83.807036	182.647	19:35:20.532	2024-03-15
0.414	0.095	-9.729	0.032377	0.068705	-0.041449	-0.131536	2.463139	-83.807364	182.661	19:35:20.546	2024-03-15
0.322	0.013	-9.883	0.064202	-0.081328	-0.036779	-0.130679	2.462617	-83.807890	182.675	19:35:20.560	2024-03-15
0.439	0.049	-9.837	0.074062	0.004864	-0.037506	-0.129685	2.462130	-83.807978	182.689	19:35:20.574	2024-03-15
0.341	-0.001	-9.729	0.084244	0.000874	-0.035401	-0.127935	2.460901	-83.807200	182.703	19:35:20.588	2024-03-15
0.391	0.044	-9.710	-0.018897	-0.195662	-0.036767	-0.125852	2.459121	-83.806045	182.717	19:35:20.602	2024-03-15
0.381	0.011	-9.870	0.047003	-0.096663	-0.017927	-0.125174	2.457381	-83.806175	182.731	19:35:20.616	2024-03-15
0.306	-0.010	-9.844	0.005349	-0.100719	-0.021201	-0.125233	2.456827	-83.806203	182.745	19:35:20.630	2024-03-15
0.313	-0.002	-9.828	-0.004742	-0.111060	-0.016075	-0.125587	2.456748	-83.806203	182.759	19:35:20.644	2024-03-15
0.319	0.006	-9.811	-0.014834	-0.121402	-0.010950	-0.125941	2.456669	-83.806216	182.773	19:35:20.658	2024-03-15
0.325	0.014	-9.795	-0.024925	-0.131744	-0.005824	-0.126295	2.456591	-83.806216	182.787	19:35:20.672	2024-03-15
0.331	0.022	-9.779	-0.035016	-0.142085	-0.000698	-0.126649	2.456512	-83.806223	182.801	19:35:20.686	2024-03-15
0.337	0.030	-9.762	-0.045107	-0.152427	0.004427	-0.127004	2.456433	-83.806216	182.815	19:35:20.700	2024-03-15
0.418	0.020	-9.813	-0.007146	0.019099	-0.042015	-0.127458	2.456156	-83.806489	182.829	19:35:20.714	2024-03-15
0.342	0.020	-9.820	-0.082887	-0.084320	-0.020429	-0.127827	2.455539	-83.806756	182.843	19:35:20.728	2024-03-15
0.459	0.065	-9.742	-0.029626	0.017563	-0.061521	-0.128218	2.454833	-83.807118	182.857	19:35:20.742	2024-03-15
0.330	-0.005	-9.751	-0.085437	0.041531	-0.082226	-0.129132	2.455131	-83.807910	182.871	19:35:20.756	2024-03-15
0.413	0.094	-9.745	-0.054192	-0.031565	-0.120793	-0.129669	2.455349	-83.809030	182.885	19:35:20.770	2024-03-15
0.395	0.014	-9.834	-0.003243	0.109235	-0.080989	-0.130112	2.456209	-83.809761	182.899	19:35:20.784	2024-03-15
0.359	0.034	-9.649	-0.049044	-0.016959	-0.051657	-0.130699	2.458756	-83.809208	182.913	19:35:20.798	2024-03-15
0.447	0.063	-9.698	-0.018813	0.052320	-0.082971	-0.130340	2.460119	-83.809652	182.927	19:35:20.812	2024-03-15
0.321	-0.002	-9.851	-0.027242	0.016065	-0.020927	-0.130125	2.460974	-83.810089	182.941	19:35:20.826	2024-03-15
0.336	0.008	-9.867	0.003313	0.036267	-0.012070	-0.130309	2.461413	-83.810307	182.955	19:35:20.840	2024-03-15
0.337	0.012	-9.802	0.032522	0.101113	-0.038320	-0.130493	2.461854	-83.810519	182.969	19:35:20.854	2024-03-15
0.383	0.095	-9.581	-0.016679	0.053443	-0.087451	-0.130086	2.463241	-83.810963	182.983	19:35:20.868	2024-03-15
0.411	0.065	-9.787	0.012850	0.085990	-0.047522	-0.129250	2.464957	-83.810929	182.997	19:35:20.882	2024-03-15
0.336	-0.020	-9.787	-0.021614	0.035166	-0.044549	-0.128488	2.464379	-83.806906	183.011	19:35:20.896	2024-03-15
0.471	0.018	-9.850	0.009531	0.043701	0.021463	-0.128190	2.464141	-83.805547	183.025	19:35:20.910	2024-03-15
0.321	0.025	-9.815	0.019844	0.005579	-0.007647	-0.127862	2.463996	-83.805246	183.039	19:35:20.924	2024-03-15
0.454	0.092	-9.759	0.007829	0.093534	0.016568	-0.126998	2.463743	-83.804953	183.053	19:35:20.938	2024-03-15
0.355	0.055	-9.767	0.042009	0.091737	0.003110	-0.126673	2.464483	-83.804638	183.067	19:35:20.952	2024-03-15
0.319	-0.048	-9.791	0.002444	0.039761	0.018066	-0.126845	2.464567	-83.804283	183.081	19:35:20.966	2024-03-15
0.334	-0.029	-9.758	-0.013082	0.032386	0.016774	-0.127561	2.463555	-83.803846	183.095	19:35:20.980	2024-03-15
0.349	-0.010	-9.725	-0.028608	0.025012	0.015481	-0.128278	2.462544	-83.803416	183.109	19:35:20.994	2024-03-15
0.364	0.009	-9.692	-0.044134	0.017637	0.014188	-0.128994	2.461531	-83.802992	183.123	19:35:21.008	2024-03-15
0.379	0.028	-9.658	-0.059659	0.010263	0.012896	-0.129711	2.460520	-83.802569	183.137	19:35:21.022	2024-03-15
0.395	0.046	-9.625	-0.075185	0.002888	0.011603	-0.130427	2.459507	-83.802152	183.151	19:35:21.036	2024-03-15
0.410	0.065	-9.592	-0.090711	-0.004486	0.010311	-0.131144	2.458495	-83.801722	183.165	19:35:21.050	2024-03-15
0.425	0.084	-9.558	-0.106236	-0.011861	0.009018	-0.131860	2.457483	-83.801292	183.179	19:35:21.064	2024-03-15
0.432	0.077	-9.746	-0.074637	-0.012277	-0.079905	-0.132577	2.456471	-83.800868	183.193	19:35:21.078	2024-03-15
0.310	-0.062	-9.790	-0.089613	-0.044598	-0.049232	-0.132474	2.457613	-83.802945	183.207	19:35:21.092	2024-03-15
0.425	0.046	-9.849	-0.064757	-0.015167	-0.036696	-0.132677	2.458628	-83.804536	183.221	19:35:21.106	2024-03-15
0.290	0.028	-9.700	-0.038639	0.082342	-0.043133	-0.133468	2.458992	-83.804946	183.235	19:35:21.120	2024-03-15
0.429	0.052	-9.846	-0.066474	-0.058130	-0.037034	-0.133467	2.457923	-83.805000	183.249	19:35:21.134	2024-03-15
0.363	0.072	-9.736	-0.038477	0.090871	-0.018211	-0.134233	2.457881	-83.805342	183.263	19:35:21.148	2024-03-15
0.347	0.025	-9.776	-0.113419	0.041860	-0.077237	-0.135444	2.458488	-83.805963	183.277	19:35:21.162	2024-03-15
0.424	0.076	-9.787	-0.040678	0.038711	-0.054248	-0.135886	2.458362	-83.806728	183.291	19:35:21.176	2024-03-15
0.307	-0.010	-9.775	-0.071958	-0.033814	-0.080862	-0.134404	2.458511	-83.805226	183.305	19:35:21.190	2024-03-15
0.352	0.075	-9.624	-0.016080	-0.026912	0.004369	-0.132890	2.458948	-83.803477	183.319	19:35:21.204	2024-03-15
0.283	0.047	-9.680	-0.062306	0.054971	0.009435	-0.133222	2.459834	-83.803429	183.333	19:35:21.218	2024-03-15
0.369	0.054	-9.901	-0.040340	-0.018968	-0.005463	-0.133354	2.459915	-83.803436	183.347	19:35:21.232	2024-03-15
0.413	0.111	-9.786	0.000386	0.127501	-0.026540	-0.133615	2.460027	-83.803559	183.361	19:35:21.246	2024-03-15
0.344	0.024	-9.749	-0.025196	0.014116	-0.053893	-0.134092	2.460358	-83.803832	183.375	19:35:21.260	2024-03-15
0.425	0.103	-9.706	0.019929	0.055539	-0.039701	-0.133016	2.462045	-83.803744	183.389	19:35:21.274	2024-03-15
0.331	-0.048	-9.781	-0.001372	0.018380	-0.016743	-0.131530	2.462697	-83.803108	183.403	19:35:21.288	2024-03-15
0.391	0.028	-9.764	-0.012389	-0.006702	-0.012526	-0.129920	2.462561	-83.802234	183.417	19:35:21.302	2024-03-15
0.356	0.048	-9.811	0.037213	0.055744	-0.023855	-0.129411	2.462366	-83.802337	183.431	19:35:21.316	2024-03-15
0.282	0.036	-9.788	0.026363	0.040011	-0.019882	-0.128903	2.462171	-83.802432	183.445	19:35:21.330	2024-03-15
0.282	0.029	-9.787	0.026574	0.029292	-0.021045	-0.128394	2.461975	-83.802535	183.459	19:35:21.344	2024-03-15
0.283	0.023	-9.786	0.026785	0.018572	-0.022208	-0.127886	2.461780	-83.802651	183.473	19:35:21.358	2024-03-15
0.283	0.016	-9.785	0.026996	0.007853	-0.023371	-0.127377	2.461585	-83.802746	183.487	19:35:21.372	2024-03-15
0.284	0.010	-9.784	0.027207	-0.002867	-0.024534	-0.126869	2.461390	-83.802849	183.501	19:35:21.386	2024-03-15
0.284	0.003	-9.783	0.027417	-0.013586	-0.025697	-0.126360	2.461194	-83.802945	183.515	19:35:21.400	2024-03-15
0.285	-0.004	-9.782	0.027628	-0.024306	-0.026860	-0.125852	2.460999	-83.803054	183.529	19:35:21.414	2024-03-15
0.318	-0.007	-9.961	-0.000985	-0.039554	-0.027034	-0.125258	2.460011	-83.803184	183.543	19:35:21.428	2024-03-15
0.462	0.049	-9.843	0.060262	0.092851	-0.034237	-0.124667	2.458727	-83.803491	183.557	19:35:21.442	2024-03-15
0.355	0.013	-9.739	0.056144	0.094942	-0.064443	-0.124472	2.459244	-83.804345	183.571	19:35:21.456	2024-03-15
0.416	0.088	-9.548	-0.094323	0.012733	-0.145519	-0.124184	2.460380	-83.805349	183.585	19:35:21.470	2024-03-15
0.383	-0.010	-9.847	-0.051650	0.005289	-0.039146	-0.124979	2.461286	-83.805752	183.599	19:35:21.484	2024-03-15
0.358	0.001	-9.743	-0.047529	-0.061822	-0.006389	-0.128575	2.460997	-83.804468	183.613	19:35:21.498	2024-03-15
0.433	0.063	-9.790	-0.032728	0.030275	-0.044261	-0.129189	2.461101	-83.804515	183.627	19:35:21.512	2024-03-15
0.345	0.028	-9.817	-0.066810	-0.083982	-0.042523	-0.129459	2.460712	-83.804925	183.641	19:35:21.526	2024-03-15
0.499	0.084	-9.846	-0.035949	0.094786	-0.059854	-0.129931	2.459578	-83.805547	183.655	19:35:21.540	2024-03-15
0.342	0.042	-9.745	-0.015298	0.095469	-0.028292	-0.130333	2.459778	-83.805929	183.669	19:35:21.554	2024-03-15
0.385	0.023	-9.864	-0.019599	0.084819	-0.034877	-0.130736	2.459977	-83.806312	183.683	19:35:21.568	2024-03-15
0.399	0.006	-9.932	-0.031457	0.060284	-0.027877	-0.130954	2.460084	-83.806291	183.697	19:35:21.582	2024-03-15
0.351	0.032	-9.669	-0.028088	-0.030856	0.031108	-0.130068	2.459634	-83.803826	183.711	19:35:21.596	2024-03-15
0.485	0.078	-9.758	0.004711	0.026877	0.000909	-0.129462	2.459955	-83.802835	183.725	19:35:21.610	2024-03-15
0.305	0.034	-9.841	-0.067951	-0.051235	-0.021808	-0.129318	2.460111	-83.802494	183.739	19:35:21.624	2024-03-15
0.441	0.064	-9.808	-0.034217	0.022848	0.021893	-0.130047	2.459081	-83.802303	183.753	19:35:21.638	2024-03-15
0.359	0.070	-9.836	-0.027021	0.058594	-0.031621	-0.130570	2.458422	-83.802350	183.767	19:35:21.652	2024-03-15
0.387	0.060	-9.682	-0.035086	0.024916	-0.054468	-0.130871	2.458727	-83.802610	183.781	19:35:21.666	2024-03-15
0.408	0.096	-9.760	-0.089420	0.039448	-0.045393	-0.130924	2.460233	-83.803088	183.795	19:35:21.680	2024-03-15
0.407	0.082	-9.780	-0.069774	0.043681	-0.048998	-0.131173	2.460326	-83.803341	183.809	19:35:21.694	2024-03-15
0.406	0.068	-9.799	-0.050129	0.047913	-0.052604	-0.131422	2.460419	-83.803573	183.823	19:35:21.708	2024-03-15
0.405	0.054	-9.819	-0.030484	0.052146	-0.056210	-0.131671	2.460512	-83.803826	183.837	19:35:21.722	2024-03-15
0.404	0.041	-9.839	-0.010838	0.056379	-0.059816	-0.131920	2.460605	-83.804065	183.851	19:35:21.736	2024-03-15
0.403	0.027	-9.858	0.008807	0.060612	-0.063421	-0.132169	2.460698	-83.804304	183.865	19:35:21.750	2024-03-15
0.402	0.013	-9.878	0.028452	0.064844	-0.067027	-0.132418	2.460791	-83.804550	183.879	19:35:21.764	2024-03-15
0.401	-0.001	-9.897	0.048098	0.069077	-0.070633	-0.132667	2.460884	-83.804789	183.893	19:35:21.778	2024-03-15
0.329	-0.028	-9.748	-0.058186	0.003541	-0.098067	-0.130965	2.460215	-83.804796	183.907	19:35:21.792	2024-03-15
0.445	0.042	-9.694	-0.037714	-0.013062	-0.023861	-0.129880	2.459916	-83.804659	183.921	19:35:21.806	2024-03-15
0.279	0.023	-9.736	-0.033464	-0.044121	-0.014262	-0.130054	2.460282	-83.804399	183.935	19:35:21.820	2024-03-15
0.385	0.028	-9.896	-0.060350	-0.014034	-0.021710	-0.130702	2.459228	-83.804700	183.949	19:35:21.834	2024-03-15
0.378	0.066	-9.797	0.027487	0.090984	-0.062622	-0.131049	2.458929	-83.805274	183.963	19:35:21.848	2024-03-15
0.384	0.017	-9.726	-0.037835	0.035980	-0.075174	-0.131059	2.459270	-83.806080	183.977	19:35:21.862	2024-03-15
0.405	0.072	-9.718	-0.042377	0.012815	-0.068592	-0.130399	2.460061	-83.806810	183.991	19:35:21.876	2024-03-15
0.336	-0.066	-9.764	-0.039807	0.064223	-0.035086	-0.130266	2.460811	-83.804994	184.005	19:35:21.890	2024-03-15
0.371	0.046	-9.763	-0.048627	-0.068363	0.001669	-0.130241	2.461203	-83.802938	184.019	19:35:21.904	2024-03-15
0.375	0.036	-9.845	-0.032989	-0.097985	0.008622	-0.129960	2.460740	-83.802849	184.033	19:35:21.918	2024-03-15
0.405	0.045	-9.895	-0.000565	-0.090566	0.005606	-0.129679	2.460278	-83.802746	184.047	19:35:21.932	2024-03-15
0.397	0.098	-9.770	0.030812	0.094317	-0.008429	-0.129664	2.460316	-83.802699	184.061	19:35:21.946	2024-03-15
0.332	0.001	-9.688	-0.060270	0.033729	-0.032356	-0.130003	2.461021	-83.802685	184.075	19:35:21.960	2024-03-15
0.426	0.070	-9.818	-0.005767	0.008665	-0.077111	-0.129897	2.461660	-83.803757	184.089	19:35:21.974	2024-03-15
0.352	-0.020	-9.913	-0.020389	0.047868	-0.067897	-0.129708	2.460917	-83.803955	184.103	19:35:21.988	2024-03-15
0.386	0.066	-9.592	-0.014978	-0.056104	-0.043666	-0.129365	2.459584	-83.803566	184.117	19:35:22.002	2024-03-15
0.349	0.052	-9.738	0.031383	0.015079	-0.003769	-0.128469	2.460940	-83.803395	184.131	19:35:22.016	2024-03-15
0.357	0.017	-9.978	-0.017231	-0.070331	-0.030814	-0.128134	2.460564	-83.803006	184.145	19:35:22.030	2024-03-15
0.469	0.055	-9.834	0.039096	0.091033	0.037052	-0.128018	2.459893	-83.802528	184.159	19:35:22.044	2024-03-15
0.453	0.049	-9.844	0.026526	0.068610	0.031334	-0.127892	2.460221	-83.801988	184.173	19:35:22.058	2024-03-15
0.438	0.042	-9.854	0.013957	0.046187	0.025616	-0.127767	2.460549	-83.801462	184.187	19:35:22.072	2024-03-15
0.422	0.036	-9.864	0.001387	0.023764	0.019897	-0.127641	2.460876	-83.800950	184.201	19:35:22.086	2024-03-15
0.406	0.030	-9.874	-0.011183	0.001341	0.014179	-0.127516	2.461204	-83.800417	184.215	19:35:22.100	2024-03-15
0.391	0.024	-9.884	-0.023753	-0.021082	0.008461	-0.127390	2.461532	-83.799885	184.229	19:35:22.114	2024-03-15
0.375	0.018	-9.894	-0.036323	-0.043505	0.002743	-0.127265	2.461860	-83.799359	184.243	19:35:22.128	2024-03-15
0.463	0.093	-9.757	-0.002308	0.119619	-0.011389	-0.127195	2.462276	-83.799024	184.257	19:35:22.142	2024-03-15
0.316	0.007	-9.749	-0.005948	0.099763	-0.078672	-0.127463	2.463219	-83.799823	184.271	19:35:22.156	2024-03-15
0.436	0.113	-9.770	-0.020120	-0.014069	-0.024255	-0.127266	2.463546	-83.800226	184.285	19:35:22.170	2024-03-15
0.377	-0.009	-9.867	-0.024368	0.048115	-0.009387	-0.127457	2.463178	-83.800595	184.299	19:35:22.184	2024-03-15
0.343	0.035	-9.580	-0.076545	-0.034033	0.008631	-0.129086	2.461686	-83.801360	184.313	19:35:22.198	2024-03-15
0.461	0.030	-9.789	-0.059746	-0.022480	0.012856	-0.129736	2.461872	-83.801326	184.327	19:35:22.212	2024-03-15
0.321	0.017	-9.883	-0.090514	-0.079080	-0.004933	-0.130477	2.461469	-83.801073	184.341	19:35:22.226	2024-03-15
0.462	0.065	-9.841	-0.093379	0.053463	0.013466	-0.131556	2.459906	-83.800650	184.355	19:35:22.240	2024-03-15
0.363	0.047	-9.780	-0.044065	0.001886	-0.024073	-0.132126	2.459035	-83.801018	184.369	19:35:22.254	2024-03-15
0.332	-0.024	-9.756	-0.079966	-0.051856	-0.069389	-0.132370	2.458466	-83.801811	184.383	19:35:22.268	2024-03-15
0.316	-0.070	-9.776	-0.074534	-0.069395	-0.040655	-0.132368	2.458122	-83.802924	184.397	19:35:22.282	2024-03-15
0.350	-0.001	-9.741	-0.085563	-0.092585	-0.026662	-0.132367	2.457779	-83.804037	184.411	19:35:22.296	2024-03-15
0.467	0.035	-9.862	-0.043181	-0.078707	-0.004254	-0.132876	2.456865	-83.804215	184.425	19:35:22.310	2024-03-15
0.317	0.020	-9.825	-0.089999	-0.128230	-0.011312	-0.133547	2.455378	-83.804181	184.439	19:35:22.324	2024-03-15
0.473	0.101	-9.812	-0.049160	-0.017521	-0.032698	-0.134118	2.453027	-83.804522	184.453	19:35:22.338	2024-03-15
0.334	0.065	-9.690	0.021591	0.066817	-0.059587	-0.134159	2.452875	-83.805007	184.467	19:35:22.352	2024-03-15
0.393	0.067	-9.724	-0.030768	-0.028322	-0.050593	-0.134015	2.453002	-83.805342	184.481	19:35:22.366	2024-03-15
0.410	-0.019	-9.906	0.029119	0.033682	-0.040933	-0.133742	2.453014	-83.805479	184.495	19:35:22.380	2024-03-15
0.346	0.001	-9.686	-0.025782	0.050997	0.016357	-0.131207	2.457043	-83.802869	184.509	19:35:22.394	2024-03-15
0.357	0.065	-9.568	-0.039209	0.019226	0.065687	-0.130086	2.459377	-83.801599	184.523	19:35:22.408	2024-03-15
0.371	0.065	-9.616	-0.028359	0.024678	0.054160	-0.130026	2.460443	-83.801298	184.537	19:35:22.422	2024-03-15
0.384	0.065	-9.664	-0.017509	0.030130	0.042632	-0.129966	2.461508	-83.800998	184.551	19:35:22.436	2024-03-15
0.397	0.065	-9.712	-0.006659	0.035582	0.031104	-0.129906	2.462573	-83.800704	184.565	19:35:22.450	2024-03-15
0.410	0.065	-9.760	0.004191	0.041035	0.019576	-0.129845	2.463637	-83.800411	184.579	19:35:22.464	2024-03-15
0.424	0.064	-9.808	0.015041	0.046487	0.008049	-0.129785	2.464702	-83.800124	184.593	19:35:22.478	2024-03-15
0.311	-0.018	-9.800	-0.062316	0.023817	-0.054701	-0.130132	2.463693	-83.801524	184.607	19:35:22.492	2024-03-15
0.432	0.052	-9.787	-0.027692	0.065541	0.002730	-0.130084	2.463451	-83.802323	184.621	19:35:22.506	2024-03-15
0.278	0.048	-9.717	-0.000142	0.034384	-0.012203	-0.129417	2.464696	-83.801968	184.635	19:35:22.520	2024-03-15
0.423	0.037	-9.856	-0.039488	0.033256	-0.004519	-0.130161	2.464821	-83.802084	184.649	19:35:22.534	2024-03-15
0.375	0.070	-9.825	-0.016488	0.140303	-0.036501	-0.130703	2.465055	-83.802296	184.663	19:35:22.548	2024-03-15
0.355	0.009	-9.742	-0.028476	0.036651	-0.045953	-0.130960	2.465439	-83.802651	184.677	19:35:22.562	2024-03-15
0.416	0.075	-9.832	0.009888	0.065521	-0.055332	-0.130418	2.466250	-83.803170	184.691	19:35:22.576	2024-03-15
0.330	-0.027	-9.734	-0.077560	-0.009641	-0.124702	-0.130329	2.464794	-83.803675	184.705	19:35:22.590	2024-03-15
0.378	0.077	-9.690	-0.029618	-0.075281	-0.039446	-0.130430	2.462726	-83.803955	184.719	19:35:22.604	2024-03-15
0.412	0.081	-9.734	-0.006048	-0.041349	-0.029659	-0.130553	2.461392	-83.803798	184.733	19:35:22.618	2024-03-15
0.445	0.085	-9.779	0.017522	-0.007417	-0.019872	-0.130676	2.460057	-83.803648	184.747	19:35:22.632	2024-03-15
0.416	0.080	-9.845	0.042714	0.027373	-0.018580	-0.130642	2.458753	-83.803908	184.761	19:35:22.646	2024-03-15
0.334	0.007	-9.731	-0.016660	-0.070699	-0.079221	-0.130400	2.457488	-83.804748	184.775	19:35:22.660	2024-03-15
0.431	0.084	-9.704	0.019999	-0.020927	-0.095614	-0.129380	2.458093	-83.805451	184.789	19:35:22.674	2024-03-15
0.336	-0.051	-9.754	0.010602	-0.026709	-0.015768	-0.128063	2.458398	-83.804256	184.803	19:35:22.688	2024-03-15
0.388	0.024	-9.783	0.018541	-0.125550	-0.012765	-0.126616	2.458322	-83.802057	184.817	19:35:22.702	2024-03-15
0.372	0.030	-9.807	0.067037	-0.025424	-0.010477	-0.125723	2.457324	-83.802357	184.831	19:35:22.716	2024-03-15
0.363	-0.005	-9.913	0.015610	-0.153494	0.029137	-0.125224	2.455943	-83.802098	184.845	19:35:22.730	2024-03-15
0.376	0.004	-9.890	0.023003	-0.113893	0.022355	-0.125120	2.455066	-83.801736	184.859	19:35:22.744	2024-03-15
0.390	0.013	-9.866	0.030397	-0.074292	0.015574	-0.125609	2.455834	-83.801736	184.873	19:35:22.758	2024-03-15
0.404	0.022	-9.843	0.037790	-0.034691	0.008792	-0.126097	2.456602	-83.801749	184.887	19:35:22.772	2024-03-15
0.417	0.031	-9.820	0.045183	0.004910	0.002011	-0.126586	2.457369	-83.801763	184.901	19:35:22.786	2024-03-15
0.431	0.041	-9.797	0.052576	0.044511	-0.004770	-0.127075	2.458137	-83.801770	184.915	19:35:22.800	2024-03-15
0.445	0.050	-9.774	0.059970	0.084112	-0.011552	-0.127564	2.458904	-83.801777	184.929	19:35:22.814	2024-03-15
0.458	0.059	-9.751	0.067363	0.123713	-0.018333	-0.128053	2.459672	-83.801777	184.943	19:35:22.828	2024-03-15
0.449	0.069	-9.719	0.055102	0.163469	-0.040038	-0.128451	2.460514	-83.801954	184.957	19:35:22.842	2024-03-15
0.358	0.061	-9.725	-0.029276	0.120157	-0.086289	-0.128311	2.461803	-83.803020	184.971	19:35:22.856	2024-03-15
0.411	0.055	-9.642	-0.031754	-0.044552	-0.101242	-0.128154	2.463032	-83.804140	184.985	19:35:22.870	2024-03-15
0.386	-0.008	-9.864	-0.051798	0.090624	-0.109111	-0.128304	2.463743	-83.804946	184.999	19:35:22.884	2024-03-15
0.315	0.022	-9.738	-0.032753	-0.007342	-0.029900	-0.129239	2.463212	-83.805028	185.013	19:35:22.898	2024-03-15
0.466	0.053	-9.762	-0.079843	0.006104	-0.032817	-0.129098	2.463556	-83.805335	185.027	19:35:22.912	2024-03-15
0.337	-0.001	-9.862	-0.017632	-0.098358	-0.048414	-0.129331	2.462992	-83.805813	185.041	19:35:22.926	2024-03-15
0.428	0.031	-10.015	-0.064867	0.154285	-0.044128	-0.130299	2.461022	-83.806503	185.055	19:35:22.940	2024-03-15
0.351	0.060	-9.508	0.003615	0.154771	-0.097102	-0.130494	2.463679	-83.807125	185.069	19:35:22.954	2024-03-15
0.252	0.016	-9.645	-0.055546	-0.003002	-0.078633	-0.130451	2.464394	-83.806694	185.083	19:35:22.968	2024-03-15
0.251	0.030	-9.597	-0.042997	0.001934	-0.047989	-0.130230	2.463652	-83.805506	185.097	19:35:22.982	2024-03-15
0.250	0.045	-9.548	-0.030448	0.006871	-0.017344	-0.130009	2.462910	-83.804324	185.111	19:35:22.996	2024-03-15
0.459	0.036	-9.348	-0.089050	-0.024348	-0.011209	-0.130404	2.462906	-83.803436	185.125	19:35:23.010	2024-03-15
0.332	0.032	-10.228	-0.051967	-0.048776	0.017431	-0.130872	2.463427	-83.802924	185.139	19:35:23.024	2024-03-15
0.451	0.049	-9.541	-0.040094	0.201252	-0.008596	-0.130907	2.464526	-83.803074	185.153	19:35:23.038	2024-03-15
0.349	0.044	-9.692	-0.001105	-0.217022	-0.050369	-0.130273	2.462190	-83.803259	185.167	19:35:23.052	2024-03-15
0.356	-0.068	-10.212	0.025865	0.203916	-0.026234	-0.130013	2.461996	-83.803313	185.181	19:35:23.066	2024-03-15
0.432	0.253	-9.001	-0.051809	0.241594	0.003474	-0.130400	2.465420	-83.803149	185.195	19:35:23.080	2024-03-15
0.270	0.080	-9.395	0.001845	-0.279130	-0.053256	-0.130566	2.464966	-83.803013	185.209	19:35:23.094	2024-03-15
0.286	0.064	-9.439	-0.005434	-0.215773	-0.048510	-0.130733	2.464511	-83.802876	185.223	19:35:23.108	2024-03-15
0.303	0.047	-9.483	-0.012712	-0.152417	-0.043764	-0.130900	2.464056	-83.802746	185.237	19:35:23.122	2024-03-15
0.320	0.030	-9.527	-0.019991	-0.089060	-0.039018	-0.131067	2.463601	-83.802610	185.251	19:35:23.136	2024-03-15
0.337	0.013	-9.570	-0.027270	-0.025703	-0.034271	-0.131234	2.463147	-83.802480	185.265	19:35:23.150	2024-03-15
0.354	-0.003	-9.614	-0.034549	0.037653	-0.029525	-0.131401	2.462692	-83.802350	185.279	19:35:23.164	2024-03-15
0.370	-0.020	-9.658	-0.041828	0.101010	-0.024779	-0.131568	2.462237	-83.802214	185.293	19:35:23.178	2024-03-15
0.383	-0.001	-9.678	-0.043083	0.109973	-0.009662	-0.131735	2.461782	-83.802070	185.307	19:35:23.192	2024-03-15
0.401	0.029	-9.690	-0.008234	-0.054258	0.031069	-0.132104	2.461223	-83.802029	185.321	19:35:23.206	2024-03-15
0.374	0.121	-9.868	-0.120101	0.007728	-0.097039	-0.132744	2.460524	-83.802091	185.335	19:35:23.220	2024-03-15
0.387	0.014	-9.773	-0.032824	0.101331	-0.013564	-0.133239	2.461810	-83.802343	185.349	19:35:23.234	2024-03-15
0.396	0.121	-9.722	0.025262	0.065386	-0.087294	-0.133349	2.462465	-83.802931	185.363	19:35:23.248	2024-03-15
0.393	-0.032	-9.882	-0.046616	0.079692	-0.070091	-0.133169	2.462834	-83.803675	185.377	19:35:23.262	2024-03-15
0.440	0.060	-9.641	0.004476	0.060665	-0.050726	-0.132975	2.464321	-83.803914	185.391	19:35:23.276	2024-03-15
0.373	-0.005	-9.610	-0.049939	0.038591	0.006400	-0.132046	2.464481	-83.803764	185.405	19:35:23.290	2024-03-15
0.362	0.001	-9.933	-0.058626	-0.073777	-0.024511	-0.131075	2.464206	-83.803580	185.419	19:35:23.304	2024-03-15
0.407	0.093	-9.918	0.035332	0.108878	-0.014403	-0.130741	2.464164	-83.803716	185.433	19:35:23.318	2024-03-15
0.389	0.102	-9.910	0.012321	0.099082	-0.020534	-0.130406	2.464122	-83.803846	185.447	19:35:23.332	2024-03-15
0.362	0.094	-9.893	-0.027690	0.066777	-0.028800	-0.130072	2.464080	-83.803983	185.461	19:35:23.346	2024-03-15
0.424	-0.003	-9.815	-0.011171	0.092525	-0.030571	-0.129738	2.464038	-83.804133	185.475	19:35:23.360	2024-03-15
0.419	0.046	-9.686	-0.022742	-0.006112	-0.018923	-0.129518	2.465261	-83.803846	185.489	19:35:23.374	2024-03-15
0.377	-0.031	-9.823	-0.017168	0.033522	0.039385	-0.129482	2.464942	-83.802897	185.503	19:35:23.388	2024-03-15
0.366	0.015	-9.821	-0.065794	-0.033558	0.030118	-0.129534	2.463844	-83.801654	185.517	19:35:23.402	2024-03-15
0.383	0.052	-9.720	-0.000544	0.047112	-0.011886	-0.129285	2.465016	-83.801647	185.531	19:35:23.416	2024-03-15
0.362	0.016	-9.967	-0.011361	-0.112039	0.017885	-0.129414	2.463819	-83.801339	185.545	19:35:23.430	2024-03-15
0.447	0.066	-9.903	0.002981	0.080016	0.006564	-0.129620	2.462461	-83.801087	185.559	19:35:23.444	2024-03-15
0.333	-0.019	-9.665	0.007009	0.062829	-0.052755	-0.129640	2.463069	-83.801292	185.573	19:35:23.458	2024-03-15
0.321	-0.026	-9.669	-0.004781	0.041894	-0.066085	-0.129834	2.462658	-83.802043	185.587	19:35:23.472	2024-03-15
0.340	0.002	-9.701	0.007710	0.038356	-0.070681	-0.130058	2.462077	-83.802897	185.601	19:35:23.486	2024-03-15
0.359	0.031	-9.734	0.020201	0.034817	-0.075277	-0.130281	2.461497	-83.803730	185.615	19:35:23.500	2024-03-15
0.379	0.059	-9.766	0.032692	0.031279	-0.079873	-0.130505	2.460917	-83.804570	185.629	19:35:23.514	2024-03-15
0.398	0.087	-9.798	0.045183	0.027740	-0.084470	-0.130728	2.460336	-83.805417	185.643	19:35:23.528	2024-03-15
0.418	0.115	-9.830	0.057674	0.024202	-0.089066	-0.130952	2.459756	-83.806257	185.657	19:35:23.542	2024-03-15
0.367	0.019	-9.802	-0.020560	0.045634	-0.086339	-0.131175	2.459175	-83.807097	185.671	19:35:23.556	2024-03-15
0.384	0.064	-9.705	0.006585	-0.077050	-0.035729	-0.131345	2.458996	-83.807405	185.685	19:35:23.570	2024-03-15
0.428	0.002	-9.737	-0.021394	0.074203	-0.042946	-0.131112	2.459298	-83.807111	185.699	19:35:23.584	2024-03-15
0.313	-0.008	-9.764	-0.075003	-0.138608	0.011186	-0.129923	2.460405	-83.805854	185.713	19:35:23.598	2024-03-15
0.432	0.062	-9.830	-0.044029	0.012776	-0.017137	-0.130015	2.460064	-83.805772	185.727	19:35:23.612	2024-03-15
0.343	0.024	-9.847	-0.050241	0.016574	-0.016152	-0.130299	2.459761	-83.805882	185.741	19:35:23.626	2024-03-15
0.389	0.107	-9.603	-0.018552	0.050974	-0.023787	-0.130555	2.459829	-83.806018	185.755	19:35:23.640	2024-03-15
0.420	0.044	-9.815	-0.016297	0.025100	-0.077292	-0.131136	2.460126	-83.806660	185.769	19:35:23.654	2024-03-15
0.347	0.051	-9.803	0.019088	0.004994	-0.045381	-0.131155	2.460307	-83.806790	185.783	19:35:23.668	2024-03-15
0.376	0.064	-9.888	0.008152	-0.008580	-0.032469	-0.130753	2.460401	-83.806551	185.797	19:35:23.682	2024-03-15
0.412	0.047	-10.013	-0.014909	-0.019732	-0.026059	-0.130351	2.460496	-83.806319	185.811	19:35:23.696	2024-03-15
0.448	0.031	-10.139	-0.037970	-0.030884	-0.019649	-0.129949	2.460590	-83.806080	185.825	19:35:23.710	2024-03-15
0.350	0.003	-9.840	-0.001021	0.118148	-0.002512	-0.129529	2.460966	-83.805854	185.839	19:35:23.724	2024-03-15
0.407	0.101	-9.554	0.009071	0.110495	-0.032501	-0.129062	2.462046	-83.805649	185.853	19:35:23.738	2024-03-15
0.388	0.067	-9.861	-0.054789	0.059021	-0.066676	-0.129132	2.463103	-83.806141	185.867	19:35:23.752	2024-03-15
0.350	-0.006	-9.762	-0.071270	0.020700	-0.006638	-0.129150	2.463933	-83.806462	185.881	19:35:23.766	2024-03-15
0.445	0.072	-9.797	0.051468	0.017292	-0.042726	-0.128982	2.464464	-83.806407	185.895	19:35:23.780	2024-03-15
0.349	-0.020	-9.802	-0.076817	-0.008818	-0.004639	-0.130499	2.463103	-83.807049	185.909	19:35:23.794	2024-03-15
0.404	-0.004	-9.790	-0.048318	0.036409	0.007779	-0.131163	2.462840	-83.807179	185.923	19:35:23.808	2024-03-15
0.355	0.105	-9.696	-0.013537	0.055761	0.001260	-0.131164	2.463345	-83.807077	185.937	19:35:23.822	2024-03-15
0.347	0.082	-9.725	-0.020318	0.021840	-0.002496	-0.131022	2.463512	-83.807678	185.951	19:35:23.836	2024-03-15
0.339	0.059	-9.754	-0.027100	-0.012081	-0.006251	-0.130880	2.463679	-83.808272	185.965	19:35:23.850	2024-03-15
0.330	0.036	-9.783	-0.033882	-0.046001	-0.010007	-0.130738	2.463847	-83.808859	185.979	19:35:23.864	2024-03-15
0.322	0.012	-9.812	-0.040663	-0.079922	-0.013762	-0.130595	2.464014	-83.809447	185.993	19:35:23.878	2024-03-15
0.314	-0.011	-9.841	-0.047445	-0.113842	-0.017518	-0.130453	2.464181	-83.810041	186.007	19:35:23.892	2024-03-15
0.397	0.029	-9.891	-0.051896	-0.008571	0.013345	-0.130949	2.464340	-83.810212	186.021	19:35:23.906	2024-03-15
0.391	0.038	-9.750	-0.097934	0.042444	0.006988	-0.132295	2.464488	-83.809802	186.035	19:35:23.920	2024-03-15
0.362	0.037	-9.859	-0.031439	0.023212	-0.038817	-0.132245	2.463771	-83.810403	186.049	19:35:23.934	2024-03-15
0.420	0.123	-9.653	0.028172	0.089474	-0.083153	-0.131919	2.463889	-83.810970	186.063	19:35:23.948	2024-03-15
0.355	0.015	-9.828	-0.041994	-0.024226	-0.059525	-0.131477	2.464473	-83.811510	186.077	19:35:23.962	2024-03-15
0.421	0.058	-9.821	-0.047729	-0.018985	-0.032842	-0.131569	2.464106	-83.811933	186.091	19:35:23.976	2024-03-15
0.390	0.004	-9.638	0.040487	0.088067	-0.076934	-0.130937	2.463277	-83.811578	186.105	19:35:23.990	2024-03-15
0.373	0.025	-9.823	-0.040791	-0.079730	0.025608	-0.130078	2.462409	-83.811086	186.119	19:35:24.004	2024-03-15
0.419	0.071	-9.749	-0.006189	0.056345	0.012671	-0.129379	2.461908	-83.811066	186.133	19:35:24.018	2024-03-15
0.391	0.051	-9.748	-0.036738	0.053624	-0.017327	-0.129054	2.462014	-83.811168	186.147	19:35:24.032	2024-03-15
0.361	0.023	-9.785	-0.066020	0.047499	-0.054644	-0.128792	2.462221	-83.811291	186.161	19:35:24.046	2024-03-15
0.332	-0.005	-9.821	-0.095302	0.041373	-0.091960	-0.128530	2.462428	-83.811414	186.175	19:35:24.060	2024-03-15
0.404	0.033	-9.704	0.008851	0.018140	-0.005061	-0.127845	2.463210	-83.811216	186.189	19:35:24.074	2024-03-15
0.390	0.009	-9.743	0.074321	0.082900	0.010946	-0.127929	2.463410	-83.810874	186.203	19:35:24.088	2024-03-15
0.305	-0.016	-9.892	-0.052467	-0.131512	0.000584	-0.128542	2.463229	-83.810383	186.217	19:35:24.102	2024-03-15
0.402	0.075	-9.732	-0.007324	0.038884	0.038001	-0.128867	2.463371	-83.809741	186.231	19:35:24.116	2024-03-15
0.313	0.054	-10.012	-0.014618	0.016456	-0.079629	-0.129207	2.463432	-83.810451	186.245	19:35:24.130	2024-03-15
0.410	0.089	-9.633	-0.036743	0.043908	-0.110419	-0.129463	2.463583	-83.811462	186.259	19:35:24.144	2024-03-15
0.343	-0.021	-9.908	-0.028053	0.076394	-0.028076	-0.129491	2.464044	-83.811933	186.273	19:35:24.158	2024-03-15
0.324	-0.038	-9.902	-0.031475	0.075387	-0.021419	-0.129785	2.464257	-83.812425	186.287	19:35:24.172	2024-03-15
0.326	-0.026	-9.882	-0.031700	0.053164	-0.029598	-0.130122	2.464430	-83.812903	186.301	19:35:24.186	2024-03-15
0.329	-0.014	-9.861	-0.031925	0.030940	-0.037777	-0.130459	2.464602	-83.813374	186.315	19:35:24.200	2024-03-15
0.331	-0.002	-9.841	-0.032149	0.008717	-0.045956	-0.130796	2.464775	-83.813852	186.329	19:35:24.214	2024-03-15
0.334	0.010	-9.820	-0.032374	-0.013507	-0.054135	-0.131133	2.464947	-83.814317	186.343	19:35:24.228	2024-03-15
0.337	0.022	-9.799	-0.032599	-0.035730	-0.062314	-0.131470	2.465119	-83.814795	186.357	19:35:24.242	2024-03-15
0.339	0.035	-9.779	-0.032823	-0.057954	-0.070493	-0.131807	2.465292	-83.815266	186.371	19:35:24.256	2024-03-15
0.342	0.047	-9.758	-0.033048	-0.080177	-0.078672	-0.132144	2.465464	-83.815744	186.385	19:35:24.270	2024-03-15
0.419	0.010	-9.720	-0.015879	0.072912	-0.007371	-0.132262	2.465455	-83.816086	186.399	19:35:24.284	2024-03-15
0.308	-0.004	-9.822	-0.029790	-0.085285	-0.045122	-0.131830	2.464995	-83.816175	186.413	19:35:24.298	2024-03-15
0.438	0.055	-9.792	-0.075684	0.037654	0.036184	-0.131934	2.464627	-83.815225	186.427	19:35:24.312	2024-03-15
0.366	0.021	-9.907	-0.001522	0.071265	0.039751	-0.131832	2.464740	-83.814686	186.441	19:35:24.326	2024-03-15
0.388	0.102	-9.410	0.026852	0.018084	-0.045316	-0.131337	2.465475	-83.814911	186.455	19:35:24.340	2024-03-15
0.405	0.033	-9.806	-0.059908	0.039152	-0.026533	-0.131282	2.466469	-83.814535	186.469	19:35:24.354	2024-03-15
0.340	-0.005	-9.925	-0.060131	-0.064007	-0.011837	-0.131433	2.466333	-83.814412	186.483	19:35:24.368	2024-03-15
0.475	0.065	-9.753	0.046957	0.099702	0.001395	-0.131639	2.465399	-83.814440	186.497	19:35:24.382	2024-03-15
0.325	0.007	-9.750	-0.016159	-0.044686	0.035558	-0.131257	2.464754	-83.814044	186.511	19:35:24.396	2024-03-15
0.353	0.009	-9.856	0.017372	0.013710	0.046262	-0.130792	2.464536	-83.813224	186.525	19:35:24.410	2024-03-15
0.383	0.012	-9.895	0.019697	0.100761	0.041301	-0.130277	2.464604	-83.812439	186.539	19:35:24.424	2024-03-15
0.327	0.089	-9.574	0.002521	0.038878	-0.021102	-0.129722	2.464956	-83.812152	186.553	19:35:24.438	2024-03-15
0.441	0.097	-9.815	-0.056666	0.039121	-0.024381	-0.129307	2.466397	-83.812350	186.567	19:35:24.452	2024-03-15
0.348	0.010	-9.839	-0.007446	-0.025883	-0.039566	-0.129171	2.467150	-83.812637	186.581	19:35:24.466	2024-03-15
0.481	0.013	-9.774	-0.061967	0.108924	-0.005104	-0.129375	2.466742	-83.812923	186.595	19:35:24.480	2024-03-15
0.337	-0.009	-9.789	0.002823	-0.012533	0.000051	-0.129746	2.466008	-83.814829	186.609	19:35:24.494	2024-03-15
0.396	0.056	-9.792	-0.080313	-0.025702	0.003849	-0.129991	2.465667	-83.815785	186.623	19:35:24.508	2024-03-15
0.418	0.049	-9.858	0.014150	0.010429	-0.004327	-0.130142	2.465623	-83.816079	186.637	19:35:24.522	2024-03-15
0.422	0.051	-9.855	-0.001130	0.023763	-0.000084	-0.130292	2.465577	-83.816366	186.651	19:35:24.536	2024-03-15
0.427	0.052	-9.853	-0.016410	0.037098	0.004158	-0.130443	2.465532	-83.816653	186.665	19:35:24.550	2024-03-15
0.432	0.054	-9.850	-0.031690	0.050432	0.008400	-0.130593	2.465487	-83.816933	186.679	19:35:24.564	2024-03-15
0.436	0.055	-9.847	-0.046970	0.063766	0.012642	-0.130744	2.465442	-83.817233	186.693	19:35:24.578	2024-03-15
0.441	0.057	-9.844	-0.062250	0.077101	0.016884	-0.130894	2.465397	-83.817520	186.707	19:35:24.592	2024-03-15
0.445	0.058	-9.842	-0.077530	0.090435	0.021126	-0.131045	2.465352	-83.817800	186.721	19:35:24.606	2024-03-15
0.450	0.060	-9.839	-0.092810	0.103769	0.025368	-0.131195	2.465307	-83.818101	186.735	19:35:24.620	2024-03-15
0.325	0.033	-9.711	-0.020243	-0.003101	-0.005780	-0.131227	2.465509	-83.818005	186.749	19:35:24.634	2024-03-15
0.461	0.099	-9.893	-0.019350	0.035141	-0.064968	-0.131327	2.465977	-83.818292	186.763	19:35:24.648	2024-03-15
0.354	-0.000	-9.715	-0.015415	0.093249	-0.009814	-0.131503	2.466452	-83.818845	186.777	19:35:24.662	2024-03-15
0.413	0.043	-9.736	-0.014132	-0.031418	-0.052502	-0.131825	2.465783	-83.819269	186.791	19:35:24.676	2024-03-15
0.391	0.030	-9.724	0.008825	0.014091	0.002548	-0.130809	2.464887	-83.819357	186.805	19:35:24.690	2024-03-15
0.351	0.015	-9.911	-0.014897	-0.051627	0.021234	-0.129724	2.464384	-83.819344	186.819	19:35:24.704	2024-03-15
0.431	0.083	-9.712	0.026258	0.137495	-0.013621	-0.129804	2.465092	-83.819405	186.833	19:35:24.718	2024-03-15
0.321	0.038	-9.677	-0.015714	0.028340	0.002333	-0.129469	2.466250	-83.819194	186.847	19:35:24.732	2024-03-15
0.434	0.059	-9.905	-0.043491	-0.032502	-0.064738	-0.129055	2.466926	-83.819241	186.861	19:35:24.746	2024-03-15
0.479	0.061	-9.934	-0.062386	0.047172	-0.070713	-0.128629	2.466859	-83.819692	186.875	19:35:24.760	2024-03-15
0.466	0.096	-9.710	-0.012551	0.073411	-0.044769	-0.128204	2.466793	-83.820163	186.889	19:35:24.774	2024-03-15
0.394	0.058	-9.641	-0.028023	-0.004564	-0.025225	-0.128669	2.466294	-83.820512	186.903	19:35:24.788	2024-03-15
0.342	-0.046	-9.971	-0.037138	-0.146585	0.006781	-0.129620	2.465555	-83.820792	186.917	19:35:24.802	2024-03-15
0.412	0.068	-9.745	0.009746	0.073431	-0.010956	-0.129477	2.465318	-83.820826	186.931	19:35:24.816	2024-03-15
0.340	-0.000	-9.700	-0.025447	0.078477	0.028733	-0.129324	2.465763	-83.820805	186.945	19:35:24.830	2024-03-15
0.368	0.096	-9.851	-0.032698	-0.092292	-0.067108	-0.129371	2.466184	-83.821045	186.959	19:35:24.844	2024-03-15
0.384	0.010	-9.730	-0.033801	0.086308	-0.099820	-0.129932	2.465865	-83.821967	186.973	19:35:24.858	2024-03-15
0.351	0.031	-9.791	-0.027435	-0.101356	-0.070251	-0.129971	2.465804	-83.822329	186.987	19:35:24.872	2024-03-15
0.464	0.053	-9.659	0.023855	0.066341	-0.070334	-0.129923	2.465787	-83.822595	187.001	19:35:24.886	2024-03-15
0.464	0.059	-9.674	0.020644	0.078790	-0.059413	-0.129875	2.465769	-83.822861	187.015	19:35:24.900	2024-03-15
0.463	0.065	-9.688	0.017432	0.091239	-0.048492	-0.129827	2.465753	-83.823114	187.029	19:35:24.914	2024-03-15
0.462	0.071	-9.703	0.014221	0.103689	-0.037572	-0.129779	2.465735	-83.823387	187.043	19:35:24.928	2024-03-15
0.461	0.077	-9.717	0.011009	0.116138	-0.026651	-0.129732	2.465718	-83.823647	187.057	19:35:24.942	2024-03-15
0.460	0.083	-9.731	0.007798	0.128588	-0.015731	-0.129684	2.465700	-83.823906	187.071	19:35:24.956	2024-03-15
0.459	0.089	-9.746	0.004586	0.141037	-0.004810	-0.129636	2.465683	-83.824166	187.085	19:35:24.970	2024-03-15
0.430	0.069	-9.635	0.024097	0.114052	-0.007128	-0.129699	2.465595	-83.824009	187.099	19:35:24.984	2024-03-15
0.338	-0.017	-9.804	-0.008653	-0.100477	-0.020896	-0.130041	2.465330	-83.822800	187.113	19:35:24.998	2024-03-15
0.409	0.049	-9.802	-0.037820	-0.047379	0.015636	-0.129980	2.464754	-83.822513	187.127	19:35:25.012	2024-03-15
0.373	0.006	-9.727	-0.001651	0.058101	-0.020355	-0.129675	2.464778	-83.822602	187.141	19:35:25.026	2024-03-15
0.327	0.089	-9.678	-0.018883	-0.125303	-0.046067	-0.129135	2.465670	-83.822957	187.155	19:35:25.040	2024-03-15
0.434	0.035	-9.919	-0.034060	0.047098	-0.098551	-0.128900	2.465512	-83.823838	187.169	19:35:25.054	2024-03-15
0.339	-0.005	-9.911	-0.005866	0.031426	-0.051682	-0.128678	2.465510	-83.824234	187.183	19:35:25.068	2024-03-15
0.469	0.041	-9.547	0.064607	0.104804	0.008343	-0.128458	2.465617	-83.824316	187.197	19:35:25.082	2024-03-15
0.327	-0.001	-9.897	-0.025149	-0.058019	0.022248	-0.128190	2.465686	-83.824555	187.211	19:35:25.096	2024-03-15
0.296	0.012	-9.899	0.011879	-0.034260	-0.002918	-0.128124	2.466140	-83.824658	187.225	19:35:25.110	2024-03-15
0.306	0.049	-9.709	0.019594	0.050458	-0.015914	-0.128138	2.466748	-83.824692	187.239	19:35:25.124	2024-03-15
0.353	0.104	-9.589	-0.078894	-0.142977	-0.095609	-0.128153	2.467357	-83.824747	187.253	19:35:25.138	2024-03-15
0.457	-0.004	-10.080	-0.093783	-0.019358	-0.093159	-0.129339	2.466735	-83.825682	187.267	19:35:25.152	2024-03-15
0.324	-0.007	-9.798	-0.063464	0.029748	-0.080099	-0.130309	2.465928	-83.826304	187.281	19:35:25.166	2024-03-15
0.440	0.135	-9.616	-0.055645	0.024268	0.008709	-0.130730	2.465150	-83.826297	187.295	19:35:25.180	2024-03-15
0.374	0.034	-9.785	-0.059022	-0.040465	-0.001802	-0.131968	2.464132	-83.827615	187.309	19:35:25.194	2024-03-15
0.372	0.041	-9.744	-0.044640	-0.021519	-0.000949	-0.132910	2.463545	-83.828407	187.323	19:35:25.208	2024-03-15
0.414	0.110	-9.815	-0.067307	0.061299	-0.026501	-0.133595	2.463453	-83.828790	187.337	19:35:25.222	2024-03-15
0.318	0.063	-9.693	-0.044116	-0.030699	-0.014137	-0.134059	2.464404	-83.828981	187.351	19:35:25.236	2024-03-15
0.305	0.085	-9.694	-0.043286	-0.130108	0.004589	-0.133938	2.464553	-83.829371	187.365	19:35:25.250	2024-03-15
0.306	0.077	-9.704	-0.022748	-0.108197	-0.003972	-0.133583	2.464380	-83.829842	187.379	19:35:25.264	2024-03-15
0.307	0.069	-9.715	-0.002209	-0.086285	-0.012532	-0.133228	2.464208	-83.830306	187.393	19:35:25.278	2024-03-15
0.308	0.061	-9.725	0.018330	-0.064374	-0.021093	-0.132874	2.464036	-83.830778	187.407	19:35:25.292	2024-03-15
0.309	0.053	-9.736	0.038869	-0.042463	-0.029653	-0.132519	2.463863	-83.831249	187.421	19:35:25.306	2024-03-15
0.310	0.045	-9.746	0.059408	-0.020552	-0.038214	-0.132164	2.463690	-83.831713	187.435	19:35:25.320	2024-03-15
0.326	0.044	-9.753	0.033356	-0.071909	-0.058440	-0.131810	2.463518	-83.832191	187.449	19:35:25.334	2024-03-15
0.450	0.071	-9.923	-0.004955	0.000837	-0.121277	-0.131512	2.463570	-83.832813	187.463	19:35:25.348	2024-03-15
0.353	-0.011	-9.793	0.054734	0.086337	-0.029046	-0.131207	2.463831	-83.833475	187.477	19:35:25.362	2024-03-15
0.385	0.053	-9.663	0.008337	0.059655	-0.028072	-0.130610	2.464342	-83.833557	187.491	19:35:25.376	2024-03-15
0.412	0.011	-9.746	0.031608	0.026643	-0.026610	-0.129578	2.464437	-83.832191	187.505	19:35:25.390	2024-03-15
0.358	-0.020	-9.859	0.020472	-0.036355	0.030072	-0.128653	2.464427	-83.830675	187.519	19:35:25.404	2024-03-15
0.434	0.080	-9.716	-0.032641	0.028349	0.011551	-0.128430	2.464566	-83.830224	187.533	19:35:25.418	2024-03-15
0.337	-0.020	-9.655	-0.012555	0.012779	-0.034143	-0.128332	2.465202	-83.830504	187.547	19:35:25.432	2024-03-15
0.420	0.041	-9.993	-0.017640	-0.014234	-0.045361	-0.128481	2.465498	-83.831010	187.561	19:35:25.446	2024-03-15
0.391	-0.013	-9.788	-0.003340	0.236401	-0.082727	-0.128931	2.465230	-83.831693	187.575	19:35:25.460	2024-03-15
0.375	0.017	-9.644	0.019732	0.051714	-0.018936	-0.129171	2.465018	-83.831850	187.589	19:35:25.474	2024-03-15
0.403	0.026	-9.753	-0.024902	0.018187	0.006746	-0.129410	2.464806	-83.832014	187.603	19:35:25.488	2024-03-15
0.342	-0.040	-9.978	-0.073625	-0.014249	0.035682	-0.129641	2.464831	-83.832191	187.617	19:35:25.502	2024-03-15
0.423	0.094	-9.622	-0.009502	0.119395	-0.056935	-0.129820	2.466276	-83.832485	187.631	19:35:25.516	2024-03-15
0.313	0.071	-9.556	-0.018843	-0.022579	-0.057510	-0.129823	2.466941	-83.832888	187.645	19:35:25.530	2024-03-15
0.395	-0.001	-10.016	-0.088490	-0.107773	-0.067974	-0.130097	2.467010	-83.833530	187.659	19:35:25.544	2024-03-15
0.410	-0.004	-9.922	-0.006509	0.124795	-0.076069	-0.131225	2.466367	-83.834630	187.673	19:35:25.558	2024-03-15
0.325	0.049	-9.689	-0.020858	0.095784	0.001592	-0.131434	2.466769	-83.834780	187.687	19:35:25.572	2024-03-15
0.399	0.073	-9.588	-0.056413	-0.022181	-0.026183	-0.131440	2.466182	-83.834452	187.701	19:35:25.586	2024-03-15
0.360	-0.048	-10.101	-0.042845	-0.090453	0.034860	-0.131381	2.464045	-83.833708	187.715	19:35:25.600	2024-03-15
0.365	-0.032	-10.065	-0.035299	-0.079061	0.029104	-0.131378	2.463936	-83.834008	187.729	19:35:25.614	2024-03-15
0.369	-0.017	-10.030	-0.027753	-0.067668	0.023347	-0.131375	2.463828	-83.834309	187.743	19:35:25.628	2024-03-15
0.373	-0.001	-9.994	-0.020207	-0.056275	0.017590	-0.131371	2.463719	-83.834609	187.757	19:35:25.642	2024-03-15
0.377	0.014	-9.959	-0.012660	-0.044883	0.011833	-0.131368	2.463610	-83.834910	187.771	19:35:25.656	2024-03-15
0.381	0.030	-9.923	-0.005114	-0.033490	0.006076	-0.131365	2.463502	-83.835210	187.785	19:35:25.670	2024-03-15
